tree
version=v4
num_class=4
num_tree_per_iteration=4
label_index=0
max_feature_idx=16
objective=multiclass num_class:4
feature_names=char_len word_count zh_ratio code_ratio has_code_block has_json has_yaml has_table easy_kw_hits hard_kw_hits has_url has_file_ref n_messages total_context_chars turn_index complaint_detected complaint_hits
feature_infos=[0:233642] [0:12689] [0:1] none none none none none [0:2] [0:7] none none [1:885] [2:542621] [0:442] none none
tree_sizes=1394 1377 1372 957 1405 1312 1417 1536 1397 1403 1523 1539 1407 1311 1514 1640 1408 1407 1411 1644 1404 1412 1520 1526 1403 1408 1518 1746 1413 1416 1411 1746 1625 1415 1733 1736 1517 1417 1622 1741 1519 1405 1517 1757 1409 1411 1524 1749 1506 1409 1733 1749 1518 1405 1527 1538 1618 1515 1728 1742 1424 1519 1736 1744 1617 1401 1411 1753 1626 1401 1518 1734 1524 1616 1729 1747 1525 1531 1623 1738 1620 1408 1734 1731 1416 1632 1724 1736 1530 1416 1735 1735 1532 1525 1736 1749 1415 1523 1622 1742 1619 1728 1744 1717 1625 1626 1731 1733 1628 1516 1748 1734 1616 1620 1723 1525 1617 1731 1730 1749 1528 1520 1524 1738 1521 1519 1526 1739 1538 1628 1632 1752 1626 1522 1522 1730 1526 1518 1621 1734 1520 1527 1726 1751 1525 1632 1728 1723 1625 1630 1726 1742 1631 1527 1735 1722 1524 1429 1748 1739 1629 1740 1729 1743 1623 1747 1736 1740 1627 1751 1730 1751 1522 1627 1740 1750 1524 1625 1731 1740 1522 1542 1723 1736 1521 1524 1726 1756 1522 1627 1731 1750 1533 1310 1518 1747 1536 1524 1515 1738 1736 1410 1728 1722 1625 1626 1742 1733 1737 1636 1740 1718 1727 1524 1742 1720 1723 1728 1740 1728 1638 1527 1623 1737 1528 1632 1515 1731 1529 1637 1723 1736 1539 1646 1730 1731 1534 1431 1736 1734 1631 1634 1745 1748 1626 1735 1744 1744 1740 1739 1734 1756 1734 1736 1738 1744 1732 1630 1736 1753 1314 1418 1730 1747 1520 1426 1637 1756 1626 1644 1632 1741 1524 1319 1725 1768 1628 1527 1640 1756 1517 1631 1728 1734 1537 1737 1625 1749 1728 1536 1749 1753 1640 1528 1751 1735 1742 1528 1532 1739 1748 1732 1323 1744 1733 1745 1742 1729 1429 1748 1730 1728 1746 1739 1735 1736 1749 1633 1742 1728 1742 1739 1731 1746 1430 1638 1732 1735 1536 1533 1738 1760 1732 1739 1738 1740 1738 1741 1634 1737 1536 1533 1418 1730 1539 1540 1631 1732 1743 1530 1746 1717 1650 1649 1635 1753 1635 1535 1634 1732 1733 1634 1740 1733 1632 1633 1730 1732 1628 1630 1432 1736 1736 1635 1740 1729 1757 1646 1724 1736 1742 1521 1527 1736 1729 1530 1748 1740 1736 1429 1745 1734 1748 1738 1532 1747 1630 1645 1746 1765 1731 1533 1741 1739 1732 1538 1742 1740 1737 1745 1639 1737 1743 1644 1750 1734 1751 1747 1631 1739 1731 1533 1729 1727 1622 1646 1628 1737 1733 1544 1523 1733 1523 1537 1320 1733 1739 1428 1637 1734 1745 1632 1734 1760 1742 1634 1736 1766 1644 1527 1731 1762 1640 1320 1743 1773 1640 1536 1638 1758 1730 1748 1735 1734 1743 1523 1632 1733 1422 1538 1742 1734 1750 1757 1637 1739 1422 1648 1728 1761 1642 1733 1736 1743 1643 1624 1743 1627 1541 1531 1749 1745 1743 1746 1743 1634 1738 1740 1757 1755 1632 1632 1741 1746 1755 1425 1742 1736 1742 1645 1732 1638 1742 1541 1740 1760 1745 1534 1643 1754 1739 1740 1748 1737 1623 1429 1750 1754 1738 1639 1540 1733 1636 1534 1758 1739 1638 1738 1751 1746 1529 1746 1646 1731 1744 1632 1629 1735 1743 1750 1744 1754 1638 1534 1750 1733 1740 1642 1744 1748 1739 1744 1741 1764 1733 1645 1722 1752 1736 1642 1424 1645 1752 1753 1736 1739 1541 1641 1738 1517 1635 1732 1630 1770 1321 1627 1736 1752 1629 1635 1742 1763 1641 1635 1631 1752 1743 1538 1643 1756 1739 1627 1742 1746 1637 1745 1739 1740 1744 1530 1735 1736 1641 1646 1750 1738 1748 1638 1743 1750 1745 1630 1427 1751 1644 1750 1630 1748 1763 1640 1525 1738 1640 1533 1644 1749 1744 1645 1743 1753 1741 1631 1739 1741 1529 1743 1740 1780 1651 1533 1727 1737 1535 1749 1736 1761 1745 1640 1526 1764 1639 1642 1731 1637 1748 1766 1737 1760 1745 1758 1739 1745 1741 1552 1731 1739 1732 1641 1736 1741 1525 1641 1729 1749 1748 1640 1738 1745 1733 1535 1636 1751 1742 1532 1634 1740 1640 1431 1533 1764 1434 1528 1630 1738 1434 1538 1520 1760 1528 1429 1624 1744 1753 1425 1746 1749 1753 1426 1741 1740 1644 1634 1535 1744 1734 1646 1428 1733 1736 1640 1743 1749 1736 1642 1530 1763 1737 1642 1639 1535 1520 1627 1414 1731 1733 1635 1737 1740 1420 1759 1631 1732 1742 1650 1742 1725 1526 1641 1424 1731 1534 1524 1631 1768 1742 1637 1632 1650 1737 1424 1738 1438 1529 1529 1742 1760 1327 1422 1741 1768 1530 1758 1534 1535 1750 1742 1638 1532 1745 1539 1738 1749 1740 1533 1735 1780 1749 1752 1738 1538

Tree=0
num_leaves=12
num_cat=0
split_feature=12 2 12 12 12 12 12 12 12 12 12
split_gain=192.543 108.287 99.5488 99.3506 12.387 9.95295 8.77381 11.8106 3.16306 0.237182 0.0667665
threshold=210.00000000000003 1.0000000180025095e-35 11.500000000000002 91.500000000000014 6.5000000000000009 144.00000000000003 15.500000000000002 25.500000000000004 58.000000000000007 298.00000000000006 37.500000000000007
decision_type=2 2 2 2 2 2 2 2 2 2 2
left_child=1 2 4 6 -1 -5 -4 -8 10 -2 -9
right_child=9 -3 3 5 -6 -7 7 8 -10 -11 -12
leaf_value=-0.74284734128651153 -0.9546275129439199 -0.91656780429514839 -0.89220621766906472 -0.75521412859382764 -0.67793745510558157 -0.68591452783024986 -0.80182869785150546 -0.86535034278104794 -0.83617170598668122 -0.94539070741742059 -0.87088657307166339
leaf_weight=55.704757571220398 46.202181279659271 75.692935287952423 40.959380567073822 44.236131012439728 62.258258461952209 38.993330299854279 54.394057393074036 40.959380567073822 47.185206413269043 69.794784486293793 46.529856324195862
leaf_count=170 141 231 125 135 190 119 166 125 144 213 142
internal_value=-0.832846 -0.806251 -0.786887 -0.816371 -0.708589 -0.722747 -0.850246 -0.841156 -0.85704 -0.94907 -0.868295
internal_weight=622.91 506.913 431.22 313.257 117.963 83.2295 230.028 189.069 134.674 115.997 87.4892
internal_count=1901 1547 1316 956 360 254 702 577 411 354 267
is_linear=0
shrinkage=1


Tree=1
num_leaves=12
num_cat=0
split_feature=12 12 12 13 12 13 13 12 13 13 13
split_gain=166.615 78.0881 62.7114 136.619 45.8163 32.1272 28.3978 16.6805 8.21463 3.78544 1.43045
threshold=210.00000000000003 398.00000000000006 11.500000000000002 22692.000000000004 30.000000000000004 6267.5000000000009 29038.000000000004 59.500000000000007 5101.0000000000009 6581.5000000000009 25984.500000000004
decision_type=2 2 2 2 2 2 2 2 2 2 2
left_child=2 -2 8 4 5 -4 10 -8 -1 -10 -5
right_child=1 -3 3 6 -6 -7 7 -9 9 -11 -12
leaf_value=-1.00512831896664 -0.790265562640317 -0.96773861405168982 -0.88162426687711437 -1.0377975909397175 -0.82028282611190451 -1.0019855350028299 -1.0249667967182301 -0.94141643252081109 -1.0769209772204937 -1.0364015493757517 -1.0610491874741641
leaf_weight=39.710014343261719 74.377487182617188 37.188743591308594 50.740573883056641 46.643508911132812 57.989227294921875 39.394855499267578 41.285808563232422 56.728591918945312 53.261844635009766 40.655490875244141 61.140815734863281
leaf_count=126 236 118 161 148 184 125 131 180 169 129 194
internal_value=-0.959665 -0.849423 -0.984891 -0.962854 -0.889621 -0.93423 -1.01556 -0.97661 -1.04326 -1.05938 -1.05099
internal_weight=599.117 111.566 487.551 353.923 148.125 90.1354 205.799 98.0144 133.627 93.9173 107.784
internal_count=1901 354 1547 1123 470 286 653 311 424 298 342
is_linear=0
shrinkage=1


Tree=2
num_leaves=12
num_cat=0
split_feature=13 0 12 12 13 13 13 12 13 12 13
split_gain=215.398 104.139 16.7588 20.1584 35.3565 11.0758 1.10412 0.993962 0.680364 0.328607 0.112154
threshold=65392.000000000007 655.00000000000011 68.000000000000014 11.500000000000002 6020.5000000000009 26088.000000000004 37631.500000000007 8.5000000000000018 9992.0000000000018 108.00000000000001 29642.000000000004
decision_type=2 2 2 2 2 2 2 2 2 2 2
left_child=1 2 3 7 -5 8 9 -1 -6 -4 -11
right_child=-2 -3 6 4 5 -7 -8 -9 -10 10 -12
leaf_value=-1.9378754773377451 -1.6402452800617577 -1.7029020760184976 -1.9457495963893527 -1.7598100264821457 -1.9127482476347772 -1.8397205105392564 -1.9307192791347936 -1.9650276119984611 -1.9332188862434323 -1.9650276119984611 -1.9565226051120899
leaf_weight=36.829516813158989 35.100431516766548 24.034285619854927 20.74902355670929 21.440657675266266 30.604809746146202 20.74902355670929 20.403206497430801 21.267749145627022 34.581705927848816 27.665364742279053 35.273340046405792
leaf_count=213 203 139 120 124 177 120 118 123 200 160 204
internal_value=-1.87437 -1.90236 -1.92014 -1.90036 -1.87469 -1.90335 -1.95158 -1.94782 -1.92361 -1.95666 -1.96026
internal_weight=328.699 293.599 269.564 165.473 107.376 85.9355 104.091 58.0973 65.1865 83.6877 62.9387
internal_count=1901 1698 1559 957 621 497 602 336 377 484 364
is_linear=0
shrinkage=1


Tree=3
num_leaves=8
num_cat=0
split_feature=13 2 13 12 13 13 13
split_gain=132.981 6.29761 5.80234 17.1826 0.89901 0.765162 0.527635
threshold=90849.500000000015 0.020000000000000004 29629.500000000004 152.00000000000003 5746.0000000000009 5334.5000000000009 41173.500000000007
decision_type=2 2 2 2 2 2 2
left_child=1 2 4 -4 5 -1 -5
right_child=-2 -3 3 6 -6 -7 -8
leaf_value=-3.6132202902446533 -3.0267867039275504 -3.489030334568239 -3.3797379555076295 -3.6258239250482713 -3.6258239250482713 -3.5624087861544766 -3.582870737637541
leaf_weight=7.934219263494013 4.507232539355754 5.8482273444533339 4.4699826836586025 7.412721283733843 31.252628929913044 4.7307316735386848 4.6562319621443748
leaf_count=213 121 157 120 199 839 127 125
internal_value=-3.55239 -3.58812 -3.5977 -3.54722 -3.61672 -3.59424 -3.60925
internal_weight=70.812 66.3047 60.4565 16.5389 43.9176 12.665 12.069
internal_count=1901 1780 1623 444 1179 340 324
is_linear=0
shrinkage=1


Tree=4
num_leaves=12
num_cat=0
split_feature=12 2 12 12 12 12 12 12 12 12 12
split_gain=150.896 87.0355 75.0602 75.967 9.52993 8.48767 7.16636 9.74786 2.52215 0.16817 0.0465474
threshold=210.00000000000003 1.0000000180025095e-35 11.500000000000002 91.500000000000014 6.5000000000000009 144.00000000000003 15.500000000000002 25.500000000000004 58.000000000000007 298.00000000000006 39.500000000000007
decision_type=2 2 2 2 2 2 2 2 2 2 2
left_child=1 2 4 6 -1 -5 -4 -8 10 -2 -9
right_child=9 -3 3 5 -6 -7 7 8 -10 -11 -12
leaf_value=0.077795106442024337 -0.10993919755980436 -0.07681778641328034 -0.053570982984743623 0.065847707515467521 0.13430253682724555 0.12938122132222726 0.028487348429811932 -0.033972167108653764 -0.0030369556029289052 -0.10201151965552324 -0.029330922974770308
leaf_weight=56.455991953611374 44.346208125352859 74.290175944566727 40.365524351596832 44.817371487617493 63.31914234161377 39.612563073635101 54.55429071187973 45.819868803024292 47.099284768104553 67.467278271913528 40.894243717193604
leaf_count=170 141 231 125 135 190 119 166 141 144 213 126
internal_value=1.82543e-07 0.0231808 0.04034 0.0145893 0.107668 0.0956562 -0.0153341 -0.00714028 -0.0216653 -0.105156 -0.0317834
internal_weight=619.042 507.228 432.938 313.163 119.775 84.4299 228.733 188.368 133.813 111.813 86.7141
internal_count=1901 1547 1316 956 360 254 702 577 411 354 267
is_linear=0
shrinkage=0.1


Tree=5
num_leaves=11
num_cat=0
split_feature=12 12 12 13 13 12 0 12 13 12
split_gain=123.915 57.2711 50.7538 132.17 28.2153 20.9231 17.5559 7.67691 4.18011 0.583069
threshold=210.00000000000003 398.00000000000006 13.500000000000002 22849.000000000004 29642.000000000004 30.000000000000004 1.0000000180025095e-35 65.500000000000014 5873.0000000000009 85.500000000000014
decision_type=2 2 2 2 2 2 2 2 2 2
left_child=2 -2 6 5 9 -4 8 -6 -1 -5
right_child=1 -3 3 4 7 -7 -8 -9 -10 -11
leaf_value=-0.10611606277413635 0.14157264211563039 -0.0092181071340050932 0.039463496270107513 -0.094086592225267926 -0.043450602055590384 0.11902454055979006 -0.010485910267784799 0.016987909170707898 -0.067220449258849305 -0.079516402121290145
leaf_weight=67.304496914148331 77.823345363140106 37.240429937839508 71.524375438690186 48.685491949319839 37.417910039424896 61.454585283994675 36.510181218385696 47.946298748254776 46.873015820980072 63.015375465154648
leaf_count=221 236 118 226 157 121 189 119 153 154 207
internal_value=-0.000447991 0.0927692 -0.0227596 -0.000804516 -0.0527883 0.0762317 -0.0708469 -0.00950426 -0.0901483 -0.0858669
internal_weight=595.796 115.064 480.732 330.044 197.065 132.979 150.688 85.3642 114.178 111.701
internal_count=1901 354 1547 1053 638 415 494 274 375 364
is_linear=0
shrinkage=0.1


Tree=6
num_leaves=12
num_cat=0
split_feature=0 14 14 14 14 14 14 14 14 14 14
split_gain=149.674 76.2704 14.0555 20.5482 22.7296 2.82358 1.74002 0.779341 0.323194 0.272766 0.00241606
threshold=436.50000000000006 187.50000000000003 34.500000000000007 5.5000000000000009 7.5000000000000009 13.500000000000002 20.500000000000004 53.500000000000007 115.50000000000001 2.5000000000000004 80.500000000000014
decision_type=2 2 2 2 2 2 2 2 2 2 2
left_child=1 2 3 9 -5 -6 -7 -4 10 -1 -9
right_child=-2 -3 7 4 5 6 -8 8 -10 -11 -12
leaf_value=-0.066056574712372404 0.17160007435558189 0.14809697319943288 -0.056550792969158964 0.090083322072866165 -0.044390820249354063 0.011894803930466661 -0.023350900269335728 -0.083293939749126633 -0.068491097447447302 -0.080463601669592433 -0.081769609409165778
leaf_weight=23.104127287864685 44.798085197806358 23.346216633915901 25.177255809307098 22.823017865419388 33.909778192639351 24.890343457460403 32.033462509512901 22.740038394927979 26.526832818984985 30.475536838173866 19.158127069473267
leaf_count=140 226 119 149 126 196 145 184 139 164 192 121
internal_value=0.00171422 -0.0250661 -0.040565 -0.0231983 0.00086881 -0.0215474 -0.00793946 -0.0715934 -0.0771284 -0.0742511 -0.0825969
internal_weight=328.983 284.185 260.839 167.236 113.657 90.8336 56.9238 93.6023 68.425 53.5797 41.8982
internal_count=1901 1675 1556 983 651 525 329 573 424 332 260
is_linear=0
shrinkage=0.1


Tree=7
num_leaves=13
num_cat=0
split_feature=13 0 13 12 13 13 13 12 13 12 12 12
split_gain=80.7071 12.9371 3.54643 13.3176 0.657674 0.469193 1.23963 0.297811 3.49678e-06 2.24955e-06 1.50193e-06 6.77059e-07
threshold=118629.50000000001 808.00000000000011 28882.000000000004 99.500000000000014 57444.500000000007 20037.500000000004 7259.0000000000009 13.500000000000002 22849.000000000004 226.00000000000003 102.00000000000001 8.5000000000000018
decision_type=2 2 2 2 2 2 2 2 2 2 2 2
left_child=1 2 5 -4 9 6 7 11 -7 -5 -10 -1
right_child=-2 -3 3 4 -6 8 -8 -9 10 -11 -12 -13
leaf_value=-0.077110007743107514 0.38481234097289152 0.12038885920984853 0.1055684492985227 -0.077166799348561022 -0.03122033657289186 -0.077029280443869697 -0.0060498282164084842 -0.051283454862012773 -0.077164906347648721 -0.077075668345033654 -0.077093697195729852 -0.077059195532353436
leaf_weight=5.6610876284539753 4.9615394920110694 5.0545966364443293 6.5469303056597736 4.5313516929745656 4.3203076757490626 4.4011649079620865 4.2246485054492942 7.7673320434987536 6.7099503166973573 6.7342723906040192 5.302696954458952 4.8853579610586166
leaf_count=160 82 129 148 126 108 129 122 227 185 193 151 141
internal_value=-0.00417925 -0.0333599 -0.0460821 -0.014117 -0.0643914 -0.0642448 -0.0548788 -0.0661428 -0.0771055 -0.0771123 -0.0771335 -0.0770865
internal_weight=71.1012 66.1397 61.0851 22.1329 15.5859 38.9522 22.5384 18.3138 16.4138 11.2656 12.0126 10.5464
internal_count=1901 1819 1690 575 427 1115 650 528 465 319 336 301
is_linear=0
shrinkage=0.1


Tree=8
num_leaves=12
num_cat=0
split_feature=13 13 12 12 13 12 13 12 13 12 12
split_gain=190.963 87.3803 133.285 46.012 24.6517 51.9905 14.7532 18.9283 2.12093 1.7444 0.0162215
threshold=29629.500000000004 22692.000000000004 11.500000000000002 4.5000000000000009 6453.0000000000009 31.500000000000004 39832.000000000007 210.00000000000003 26772.500000000004 108.00000000000001 74.000000000000014
decision_type=2 2 2 2 2 2 2 2 2 2 2
left_child=1 2 3 -1 -4 -6 7 -2 10 -8 -3
right_child=6 8 4 -5 5 -7 9 -9 -10 -11 -12
leaf_value=0.010154927709935431 -0.0062043106727695087 0.11804987370617769 -0.10509114502744732 0.13323679746014278 0.059941550472742501 -0.09309536087217099 -0.12042359006055303 -0.096080038104031387 0.090753545189618645 -0.094500388723285159 0.1151795293368291
leaf_weight=51.171059221029282 47.251486212015152 38.981893211603165 61.222029715776443 74.727192610502243 41.098117381334305 48.273621559143066 43.762968122959137 46.486328721046448 53.18678691983223 63.801746428012848 39.782366216182709
leaf_count=156 144 118 191 226 126 153 139 156 162 210 120
internal_value=-5.99459e-05 0.039228 0.00727541 0.0832105 -0.0562072 -0.0227204 -0.0797752 -0.0507754 0.106182 -0.105047 0.1166
internal_weight=609.746 408.443 276.492 125.898 150.594 89.3717 201.303 93.7378 131.951 107.565 78.7643
internal_count=1901 1252 852 382 470 279 649 300 400 349 238
is_linear=0
shrinkage=0.1


Tree=9
num_leaves=12
num_cat=0
split_feature=13 0 13 13 13 13 13 13 13 13 13
split_gain=49.7066 103.321 39.9347 22.9644 10.0691 11.0443 7.4592 4.02613 6.66255 1.3813 0.862603
threshold=29642.000000000004 16.500000000000004 22692.000000000004 5611.0000000000009 60392.500000000007 33800.000000000007 5044.5000000000009 6229.5000000000009 19672.000000000004 26772.500000000004 7107.5000000000009
decision_type=2 2 2 2 2 2 2 2 2 2 2
left_child=2 4 3 6 5 -2 -1 -5 10 -4 -9
right_child=1 -3 9 7 -6 -7 -8 8 -10 -11 -12
leaf_value=-0.0070359701253054369 0.060656403541677763 -0.07967867324911368 -0.077936254163805244 0.052523222005388781 0.037293184462482774 0.12379431413990523 -0.062932475959529596 0.0072821677536378891 0.044414119048406107 -0.05622829193281801 -0.013325327658178546
leaf_weight=42.713605970144272 48.461302220821381 53.70813062787056 71.43572011590004 36.185406893491745 38.062232196331024 64.684956729412079 54.127018392086029 42.255365014076233 47.801601976156235 49.709767758846283 39.115292608737946
leaf_count=143 153 172 238 117 120 198 183 135 150 168 124
internal_value=-0.000292545 0.0394657 -0.0215454 0.000393778 0.081785 0.0967519 -0.0382781 0.0230417 0.014783 -0.0690288 -0.00262396
internal_weight=588.26 204.917 383.344 262.198 151.208 113.146 96.8406 165.358 129.172 121.145 81.3707
internal_count=1901 643 1258 852 471 351 326 526 409 406 259
is_linear=0
shrinkage=0.1


Tree=10
num_leaves=13
num_cat=0
split_feature=1 12 8 12 12 12 12 12 12 12 12 12
split_gain=99.0072 65.0908 28.5832 14.2653 22.0594 17.6269 1.56381 1.64857 1.90851 0.165518 0.101659 0.0863509
threshold=2.5000000000000004 398.00000000000006 1.0000000180025095e-35 93.500000000000014 11.500000000000002 15.500000000000002 61.500000000000007 27.500000000000004 41.500000000000007 232.00000000000003 136.00000000000003 6.5000000000000009
decision_type=2 2 2 2 2 2 2 2 2 2 2 2
left_child=1 3 -2 4 11 -6 7 -7 -9 10 -5 -1
right_child=2 -3 -4 9 5 6 -8 8 -10 -11 -12 -13
leaf_value=-0.086917162412675886 0.16584872585039426 0.14302509595020016 0.032922414572860957 -0.076154247891792606 0.072954321901422231 -0.033864759511967296 -0.045445240431561382 0.017741205631313543 -0.023250785970991367 -0.071941406778464209 -0.085807900626968872 -0.078363278437393408
leaf_weight=20.60582672059536 38.798666477203369 20.903715312480927 27.744416177272797 18.682341247797012 24.907430306077003 27.763762518763542 21.314525812864304 22.517351359128952 22.917703717947006 27.518943265080452 26.215253353118896 27.620925143361092
leaf_count=131 182 92 137 120 126 167 131 130 134 180 180 191
internal_value=0.00154292 -0.0262209 0.110427 -0.040958 -0.0249368 -0.00188511 -0.0216078 -0.0146667 -0.00293539 -0.078048 -0.0817909 -0.0820181
internal_weight=327.511 260.968 66.5431 240.064 167.648 119.421 94.5133 73.1988 45.4351 72.4165 44.8976 48.2268
internal_count=1901 1582 319 1490 1010 688 562 431 264 480 300 322
is_linear=0
shrinkage=0.1


Tree=11
num_leaves=13
num_cat=0
split_feature=13 13 2 13 12 12 13 13 13 12 12 12
split_gain=72.2397 6.21594 5.48432 2.54275 5.23121 2.29261 1.0107 0.806688 6.80864e-06 1.24314e-05 6.98117e-06 2.34999e-06
threshold=142259.00000000003 41173.500000000007 0.037500000000000006 29629.500000000004 172.00000000000003 348.00000000000006 5746.0000000000009 5334.5000000000009 22849.000000000004 91.500000000000014 30.000000000000004 11.500000000000002
decision_type=2 2 2 2 2 2 2 2 2 2 2 2
left_child=1 2 3 6 -5 -3 7 -1 10 -10 11 -8
right_child=-2 5 -4 4 -6 -7 8 -9 9 -11 -12 -13
leaf_value=-0.062498283986543418 0.38161983003982042 0.073401993812448899 0.063530582507417305 0.063800184674786112 -0.076828565549227915 -0.011911857485841885 -0.076889193244305709 -0.0073912622663934906 -0.077097938206169225 -0.076895707112757117 -0.076808073040303987 -0.076988591364575629
leaf_weight=6.9273086003959161 4.542417272925376 6.5791280120611173 4.2539953291416159 4.9424427188932878 5.6909348629415035 6.0430713146924973 4.0389715917408484 4.3085866458714008 6.0823681298643333 6.0762239601463079 5.6309193260967723 5.7857388351112604
leaf_count=213 52 129 103 109 184 137 127 127 173 190 184 173
internal_value=-0.00418435 -0.0305932 -0.0454262 -0.054793 -0.0114637 0.0325567 -0.0666524 -0.0413666 -0.0769409 -0.0769969 -0.0768968 -0.0769477
internal_weight=70.9021 66.3597 53.7375 49.4835 10.6334 12.6222 38.8501 11.2359 27.6142 12.1586 15.4556 9.82471
internal_count=1901 1849 1583 1480 293 266 1187 340 847 363 484 300
is_linear=0
shrinkage=0.1


Tree=12
num_leaves=12
num_cat=0
split_feature=13 13 14 14 13 14 13 14 1 14 13
split_gain=153.808 67.9547 112.605 38.8843 21.9834 45.0786 13.3547 16.8423 2.4153 1.74476 1.05173
threshold=29629.500000000004 22692.000000000004 5.5000000000000009 1.5000000000000002 6453.0000000000009 15.500000000000002 39832.000000000007 104.50000000000001 1.0000000180025095e-35 59.500000000000007 25965.500000000004
decision_type=2 2 2 2 2 2 2 2 2 2 2
left_child=1 2 3 -1 -4 -6 7 -2 -8 10 -3
right_child=6 9 4 -5 5 -7 8 -9 -10 -11 -12
leaf_value=0.0097418052370122701 -0.0039063163617443766 0.092013988207287178 -0.099209683846772326 0.12347937704006212 0.055482995080284474 -0.087667189018561548 -0.11249065522385007 -0.089878225857279961 -0.081766573209478888 0.078298750061877503 0.1141987132117218
leaf_weight=51.014923453330994 47.141703248023987 45.332222878932953 59.74630731344223 73.172215789556503 41.348297446966171 47.006824046373367 54.382448643445969 44.107356071472168 48.321596831083298 45.807628840208054 40.426458925008774
leaf_count=156 144 137 191 226 126 153 186 156 163 141 122
internal_value=-0.000107937 0.0350436 0.00652982 0.076757 -0.0523576 -0.020676 -0.0733015 -0.0454628 -0.0980352 0.0940554 0.102472
internal_weight=597.808 403.855 272.289 124.187 148.101 88.3551 193.953 91.2491 102.704 131.566 85.7587
internal_count=1901 1252 852 382 470 279 649 300 349 400 259
is_linear=0
shrinkage=0.1


Tree=13
num_leaves=11
num_cat=0
split_feature=12 12 12 13 13 0 12 12 12 13
split_gain=76.6487 38.6737 37.4399 95.5647 19.6534 16.2598 15.0505 12.5921 3.90247 0.565561
threshold=210.00000000000003 398.00000000000006 13.500000000000002 22849.000000000004 29038.000000000004 1.0000000180025095e-35 30.000000000000004 59.500000000000007 8.5000000000000018 25984.500000000004
decision_type=2 2 2 2 2 2 2 2 2 2
left_child=2 -2 5 6 9 8 -4 -6 -1 -5
right_child=1 -3 3 4 7 -7 -8 -9 -10 -11
leaf_value=-0.10012297989784202 0.11298600533415815 -0.010809896218436588 0.033579563748155461 -0.069063068472485709 -0.057949581120374953 -0.0023829642863452119 0.10050314503484521 0.016436360089862229 -0.061725038509609031 -0.08477165128271294
leaf_weight=52.726042121648788 77.831077933311462 37.342471063137054 72.407692313194275 40.029935896396637 38.039772987365723 35.187326490879059 62.705575793981552 56.644366979598999 53.148214429616928 53.620323151350021
leaf_count=188 236 118 226 140 126 119 189 180 187 192
internal_value=-0.000178147 0.0728479 -0.0182847 0.000464035 -0.0455755 -0.0612748 0.0646386 -0.0134485 -0.0808475 -0.0780572
internal_weight=579.683 115.174 464.509 323.448 188.334 141.062 135.113 94.6841 105.874 93.6503
internal_count=1901 354 1547 1053 638 494 415 306 375 332
is_linear=0
shrinkage=0.1


Tree=14
num_leaves=13
num_cat=0
split_feature=13 1 2 12 13 13 12 13 12 13 13 14
split_gain=96.1423 57.493 19.1039 12.5292 16.9197 11.8717 27.5226 3.79329 2.18988 1.03301 0.116811 0.262569
threshold=65392.000000000007 107.50000000000001 0.024500000000000004 93.500000000000014 28571.000000000004 5572.5000000000009 9.5000000000000018 22359.000000000004 23.500000000000004 6581.5000000000009 29642.000000000004 129.50000000000003
decision_type=2 2 2 2 2 2 2 2 2 2 2 2
left_child=1 2 3 4 5 6 -1 8 9 -7 -5 -12
right_child=-2 -3 -4 10 -6 7 -8 -9 -10 -11 11 -13
leaf_value=-0.080501780605923529 0.12943970969343316 0.13265795141256465 0.059514875137932903 -0.084878730156836321 0.058769389155966495 -0.04582676609116923 0.082406849179753772 -0.088398574363434096 -0.02699253141040785 -0.077172804697791322 -0.066648623012664027 -0.082902716788715011
leaf_weight=19.742018833756447 49.682080388069153 22.183319717645645 19.627246856689453 25.997538581490517 19.608551114797592 21.27653968334198 21.846593216061592 29.588874876499176 33.311122804880142 20.782299503684044 16.703153319656849 24.539579138159752
leaf_count=140 203 95 97 190 113 133 118 176 211 138 125 162
internal_value=0.00140743 -0.0217058 -0.0352393 -0.0432076 -0.0284685 -0.0401412 0.0050745 -0.0580573 -0.0461459 -0.0613156 -0.079629 -0.0763199
internal_weight=324.889 275.207 253.024 233.396 166.156 146.547 41.5886 104.959 75.37 42.0588 67.2403 41.2427
internal_count=1901 1698 1603 1506 1029 916 258 658 482 271 477 287
is_linear=0
shrinkage=0.1


Tree=15
num_leaves=14
num_cat=0
split_feature=2 0 12 12 12 12 12 12 12 12 12 12 12
split_gain=46.7865 8.84455 0.998517 10.7467 1.18637 0.546935 0.98129 0.181348 0.241724 0.118612 4.04066e-06 5.53438e-06 2.13613e-07
threshold=0.41050000000000003 1596.0000000000002 31.500000000000004 44.000000000000007 440.00000000000006 97.500000000000014 65.500000000000014 18.000000000000004 11.500000000000002 6.5000000000000009 150.00000000000003 214.00000000000003 292.00000000000006
decision_type=2 2 2 2 2 2 2 2 2 2 2 2 2
left_child=1 2 7 -4 5 6 -5 8 9 -1 -7 -12 -13
right_child=-2 -3 3 4 -6 10 -8 -9 -10 -11 11 12 -14
leaf_value=-0.054677975748508335 0.2182857716571987 0.07785233679008674 0.11439683094108022 -0.077755564169912084 -0.0084978813515592493 -0.076933376653184185 -0.013949623246791276 -0.077060882400599287 -0.040452720683689193 -0.076690760685203072 -0.076717332165925245 -0.076852906048428329 -0.076886394019695811
leaf_weight=4.5018806606531161 8.3400968536734563 6.3510823212563983 4.1703347563743582 4.9338616710156256 4.2991726174950591 4.5314029958099118 4.7125025205314159 6.6537796296179286 5.4794042296707621 5.364825177937746 3.5039695557206851 3.9240885209292173 3.7015970498323441
leaf_count=143 105 116 116 133 93 142 127 201 168 190 122 127 118
internal_value=-0.00410772 -0.033962 -0.0466938 -0.0358957 -0.0570656 -0.0653162 -0.0465847 -0.0632726 -0.0572942 -0.066647 -0.0768538 -0.0768214 -0.0768692
internal_weight=70.468 62.1279 55.7768 33.7769 29.6066 25.3074 9.64636 21.9999 15.3461 9.86671 15.6611 11.1297 7.62569
internal_count=1901 1796 1680 978 862 769 260 702 501 333 509 367 245
is_linear=0
shrinkage=0.1


Tree=16
num_leaves=12
num_cat=0
split_feature=12 2 12 12 12 12 12 12 12 12 12
split_gain=79.9519 52.327 38.9858 42.103 14.6617 6.09619 6.21999 3.09308 0.31348 0.207575 0.0643038
threshold=210.00000000000003 1.0000000180025095e-35 11.500000000000002 108.00000000000001 4.5000000000000009 15.500000000000002 25.500000000000004 58.000000000000007 8.5000000000000018 298.00000000000006 39.500000000000007
decision_type=2 2 2 2 2 2 2 2 2 2 2
left_child=1 2 4 5 -1 -4 -7 10 -6 -2 -8
right_child=9 -3 3 -5 8 6 7 -9 -10 -11 -12
leaf_value=0.028067113712463676 -0.090155426876485589 -0.064392797753544617 -0.045698883264480045 0.080228676041529015 0.11066069917736264 0.02676898429920074 -0.028362518769713171 0.0041976260720961349 0.09786518474942496 -0.080573229765723398 -0.022767735932117936
leaf_weight=37.55718132853508 37.203310906887054 69.285072356462479 38.675210744142532 67.480705142021179 38.776059687137604 53.615581631660461 43.811155140399933 59.339310586452484 37.822559624910355 57.621447324752808 38.681038230657578
leaf_count=114 141 231 125 210 124 166 141 188 122 213 126
internal_value=-0.00035206 0.0160659 0.0294742 0.0106349 0.079248 -0.009424 -0.0022459 -0.0132142 0.104343 -0.0843327 -0.0257391
internal_weight=579.869 485.044 415.759 301.603 114.156 234.122 195.447 141.832 76.5986 94.8248 82.4922
internal_count=1901 1547 1316 956 360 746 621 455 246 354 267
is_linear=0
shrinkage=0.1


Tree=17
num_leaves=12
num_cat=0
split_feature=0 13 13 13 13 0 13 13 13 13 13
split_gain=36.5253 53.678 27.4447 27.153 15.9371 9.98239 7.55672 3.38087 6.43367 0.963597 0.523233
threshold=47.000000000000007 29642.000000000004 22849.000000000004 5611.0000000000009 65392.000000000007 835.50000000000011 33800.000000000007 6453.0000000000009 19672.000000000004 26772.500000000004 5199.5000000000009
decision_type=2 2 2 2 2 2 2 2 2 2 2
left_child=1 2 3 10 6 -2 -3 -5 -9 -4 -1
right_child=5 4 9 7 -6 -7 -8 8 -10 -11 -12
leaf_value=-0.035192554319809742 -0.086183413962915525 0.046641895783829629 -0.066062604594390104 0.054807770648481552 0.0018758566263267996 -0.020478613575465966 0.097681624310277201 -0.00010582278512841828 0.050555087074280525 -0.045722738027805659 -0.052194343727045837
leaf_weight=39.166807249188423 52.285734415054321 49.239117175340652 54.835296511650085 44.127137422561646 37.320338547229767 41.456463634967804 70.600045919418335 58.265245527029037 43.996195539832115 40.48990261554718 33.654967874288559
leaf_count=140 173 156 204 144 119 143 220 189 140 150 123
internal_value=-0.000114015 0.0112163 -0.012629 0.00685003 0.0589397 -0.0571262 0.0767106 0.0316731 0.0216901 -0.0574231 -0.04305
internal_weight=565.437 471.695 314.536 219.21 157.16 93.7422 119.839 146.389 102.261 95.3252 72.8218
internal_count=1901 1585 1090 736 495 316 376 473 329 354 263
is_linear=0
shrinkage=0.1


Tree=18
num_leaves=12
num_cat=0
split_feature=0 12 12 12 12 12 12 12 12 12 12
split_gain=73.7169 63.4585 12.4777 13.818 12.0568 2.2587 0.84727 0.667473 0.269538 0.234452 0.00564343
threshold=436.50000000000006 469.00000000000006 69.500000000000014 11.500000000000002 15.500000000000002 23.500000000000004 41.500000000000007 108.00000000000001 232.00000000000003 5.5000000000000009 164.00000000000003
decision_type=2 2 2 2 2 2 2 2 2 2 2
left_child=1 2 3 9 -5 -6 -7 -4 10 -1 -9
right_child=-2 -3 7 4 5 6 -8 8 -10 -11 -12
leaf_value=-0.059708313140442018 0.10454210867131775 0.14093669864795461 -0.052058088307584786 0.057556007813138403 -0.046679681025648671 0.0011442924469937431 -0.021607276490395812 -0.079399731569974305 -0.064975347878463999 -0.074627027362869497 -0.07676734525185884
leaf_weight=19.497014582157135 57.137147024273872 22.222949057817459 22.667231477797031 26.937816470861435 21.988067835569382 34.504850313067436 31.140129595994949 18.744441047310829 28.355554386973381 22.914087422192097 14.40113517642021
leaf_count=140 226 80 149 126 137 204 184 143 203 192 117
internal_value=0.00157725 -0.0207603 -0.0356613 -0.0190052 -0.000954279 -0.01894 -0.00964841 -0.0667266 -0.0721329 -0.0677687 -0.078256
internal_weight=320.51 263.373 241.15 156.982 114.571 87.633 65.645 84.1684 61.5011 42.4111 33.1456
internal_count=1901 1675 1595 983 651 525 388 612 463 332 260
is_linear=0
shrinkage=0.1


Tree=19
num_leaves=14
num_cat=0
split_feature=13 1 13 12 1 12 13 13 12 12 12 12 12
split_gain=49.5197 12.9125 2.34594 7.92598 3.22693 1.5244 0.489951 0.00463527 1.27508e-05 9.66394e-06 1.51582e-05 4.0465e-06 1.58487e-06
threshold=166943.50000000003 149.00000000000003 28882.000000000004 99.500000000000014 1.0000000180025095e-35 452.00000000000006 5514.5000000000009 44097.500000000007 226.00000000000003 11.500000000000002 44.000000000000007 97.500000000000014 25.500000000000004
decision_type=2 2 2 2 2 2 2 2 2 2 2 2 2
left_child=1 2 4 -4 6 7 -1 8 -5 -8 12 -12 -11
right_child=-2 -3 3 5 -6 -7 9 -9 -10 10 11 -13 -14
leaf_value=-0.045257245975489024 0.28917828531364853 0.13001179473829194 0.0528501367515882 -0.076868169192025673 0.028337224000518864 -0.0092243063719702097 -0.076539143433315915 -0.080867824200636151 -0.076619535625518487 -0.076761157765937754 -0.076675447933308244 -0.07654015247776165 -0.076843068998608044
leaf_weight=6.3576279692351845 5.34011586010456 4.7994979452341786 9.8294354602694529 3.5462750196456927 3.7903195992112151 4.3427509851753703 4.0387600362300899 3.9595622811466447 4.9301191437989473 5.3412425853312033 5.0826707463711482 3.9121201690286398 4.2350962180644274
leaf_count=222 38 101 163 119 109 93 156 74 181 180 179 149 137
internal_value=-0.00340848 -0.0277588 -0.0405139 -0.0184572 -0.0584298 -0.060231 -0.069783 -0.0780431 -0.0767236 -0.0766793 -0.0767098 -0.0766166 -0.0767974
internal_weight=69.5056 64.1655 59.366 26.6081 32.7578 16.7787 28.9675 12.436 8.47639 22.6099 18.5711 8.99479 9.57634
internal_count=1901 1863 1762 630 1132 467 1023 374 300 801 645 328 317
is_linear=0
shrinkage=0.1


Tree=20
num_leaves=12
num_cat=0
split_feature=13 13 12 12 13 12 1 13 13 13 12
split_gain=110.379 44.3501 92.0716 22.4627 19.5495 45.5253 12.9278 9.14648 1.97908 0.414614 0.0295735
threshold=29629.500000000004 22849.000000000004 11.500000000000002 4.5000000000000009 6453.0000000000009 30.000000000000004 7.5000000000000009 36313.000000000007 26772.500000000004 54989.000000000007 8.5000000000000018
decision_type=2 2 2 2 2 2 2 2 2 2 2
left_child=1 2 3 -1 -4 -6 7 -2 -3 -9 -5
right_child=6 8 4 10 5 -7 -8 9 -10 -11 -12
leaf_value=0.021692353360680192 -0.04800879450527748 0.093381404797142131 -0.087389690280632995 0.11172972811638444 0.067707635934156282 -0.076582756412249153 -0.0062379213569849941 -0.10745146050473775 0.066731965395765175 -0.092808692145678329 0.10768450627838132
leaf_weight=48.290408134460449 63.770160928368568 72.717200607061386 59.644494444131851 37.177406221628189 38.913411319255829 49.91498214006424 32.262394621968269 32.549162968993187 45.181336998939514 47.640393167734146 35.168271511793137
leaf_count=150 222 227 198 124 118 171 117 122 144 181 118
internal_value=0.00215192 0.0320244 0.00961776 0.0745087 -0.0431069 -0.0133729 -0.0634522 -0.0762743 0.0831687 -0.0987522 0.109763
internal_weight=563.23 387.008 269.109 120.636 148.473 88.8284 176.222 143.96 117.899 80.1896 72.3457
internal_count=1892 1250 879 392 487 289 642 525 371 303 242
is_linear=0
shrinkage=0.1


Tree=21
num_leaves=12
num_cat=0
split_feature=12 12 13 12 13 13 13 13 12 13 13
split_gain=51.1931 27.6483 52.6897 21.4097 20.6202 20.359 14.4912 10.2138 4.25444 3.10311 1.02632
threshold=210.00000000000003 11.500000000000002 22849.000000000004 42.500000000000007 6453.0000000000009 46463.000000000007 30455.000000000004 5042.5000000000009 61.500000000000007 6665.0000000000009 26772.500000000004
decision_type=2 2 2 2 2 2 2 2 2 2 2
left_child=1 7 3 4 -3 -2 10 -1 -8 -9 -4
right_child=5 2 6 -5 -6 -7 8 9 -10 -11 -12
leaf_value=-0.0092473815546478717 0.095550642982643805 0.057693258620776469 -0.07399849754190628 0.10343316803327154 -0.025979230516381888 0.0062948780340014504 -0.033382536614496701 -0.093940529069167167 0.013228727268714453 -0.053598451642591444 -0.053439301020403451
leaf_weight=29.061181411147118 65.124608546495438 62.897562891244888 55.881200671195984 39.635649651288986 55.39055871963501 42.060315996408463 35.471504300832748 49.518032163381577 43.715356379747391 31.005684718489647 42.93899667263031
leaf_count=109 210 193 214 120 174 134 120 202 137 116 163
internal_value=-0.00152174 -0.0164495 -0.00222124 0.0398256 0.0185121 0.0605259 -0.0395242 -0.0600662 -0.00765064 -0.0784068 -0.0650652
internal_weight=552.701 445.516 335.931 157.924 118.288 107.185 178.007 109.585 79.1869 80.5237 98.8202
internal_count=1892 1548 1121 487 367 344 634 427 257 318 377
is_linear=0
shrinkage=0.1


Tree=22
num_leaves=13
num_cat=0
split_feature=13 1 2 14 13 14 13 13 13 14 13 13
split_gain=45.4989 27.6433 18.0952 9.50212 29.44 7.54647 12.4756 4.71213 1.93988 0.614018 0.0921558 0.0178688
threshold=69068.500000000015 133.50000000000003 0.06950000000000002 5.5000000000000009 5611.0000000000009 30.500000000000004 26088.000000000004 41173.500000000007 9992.0000000000018 46.500000000000007 29900.000000000004 5946.5000000000009
decision_type=2 2 2 2 2 2 2 2 2 2 2 2
left_child=1 2 3 11 -5 6 8 9 -6 -7 -11 -1
right_child=-2 -3 -4 4 5 7 -8 -9 -10 10 -12 -13
leaf_value=-0.080094737305394959 0.090052990459737151 0.099621515113830689 0.06837462837559305 0.088326170377909574 -0.02376320933307477 -0.057487899183049473 0.050506087476079965 -0.018816580935447899 -0.05888817286266828 -0.074899109427234573 -0.083892718076412298 -0.075614763388223746
leaf_weight=26.323538273572922 46.082975164055824 18.710995525121689 18.613589912652969 20.506074652075768 35.737092763185501 17.454075649380684 20.467762231826782 21.068461507558823 28.075774908065796 22.070314429700375 23.551538027822971 13.453420668840407
leaf_count=221 172 71 84 91 219 121 108 123 179 186 196 121
internal_value=-0.00168304 -0.0175738 -0.0264402 -0.0341568 -0.0248041 -0.038578 -0.0174276 -0.0597626 -0.0392172 -0.0734392 -0.0795419 -0.0785795
internal_weight=312.116 266.033 247.322 228.708 188.931 168.425 84.2806 84.1444 63.8129 63.0759 45.6219 39.777
internal_count=1892 1720 1649 1565 1223 1132 506 626 398 503 382 342
is_linear=0
shrinkage=0.1


Tree=23
num_leaves=13
num_cat=0
split_feature=2 0 14 14 14 14 14 14 14 14 14 14
split_gain=36.9988 2.99648 2.19263 14.9457 1.47867 0.854334 1.39016 0.389459 0.819049 0.122386 2.58604e-06 2.89832e-06
threshold=0.79550000000000021 1596.0000000000002 20.500000000000004 15.500000000000002 219.50000000000003 6.5000000000000009 9.5000000000000018 48.500000000000007 30.500000000000004 2.5000000000000004 73.500000000000014 109.50000000000001
decision_type=2 2 2 2 2 2 2 2 2 2 2 2
left_child=1 2 3 5 7 9 -7 8 -4 -1 -9 -12
right_child=-2 -3 4 -5 -6 6 -8 10 -10 -11 11 -13
leaf_value=-0.055318894765737814 0.18445196805763556 0.034800639749676891 -0.078286247436429923 0.15668853608929834 0.0039909547207513706 0.015086966735892186 -0.059834024840502688 -0.076625090475500646 -0.023506214347548446 -0.076589877392146399 -0.076442253717152964 -0.076560906820220334
leaf_weight=4.6405488904565626 9.593507416546343 6.8899370580911627 5.4132541343569809 4.2577033061534157 3.6504082009196273 4.352423392236231 5.7464197892695665 3.2173324059694997 5.5050773583352566 6.4849173966795206 3.1035480089485628 6.1148468237370253
leaf_count=158 79 104 143 101 81 148 180 120 155 259 129 235
internal_value=0.00223788 -0.0272026 -0.0353419 -0.0143012 -0.0551963 -0.0486026 -0.0275444 -0.0644477 -0.0506659 -0.0677175 -0.0765479 -0.076521
internal_weight=68.9699 59.3764 52.4865 25.482 27.0045 21.2243 10.0988 23.3541 10.9183 11.1255 12.4357 9.21839
internal_count=1892 1813 1709 846 863 745 328 782 298 417 484 364
is_linear=0
shrinkage=0.1


Tree=24
num_leaves=12
num_cat=0
split_feature=13 13 12 12 13 12 1 13 13 13 12
split_gain=90.3125 35.3286 73.717 20.1805 16.3597 36.9496 12.0615 8.79689 1.58364 0.417299 0.0284731
threshold=29629.500000000004 22849.000000000004 11.500000000000002 4.5000000000000009 6453.0000000000009 30.000000000000004 7.5000000000000009 36313.000000000007 26772.500000000004 57444.500000000007 8.5000000000000018
decision_type=2 2 2 2 2 2 2 2 2 2 2
left_child=1 2 3 -1 -4 -6 7 -2 -3 -9 -5
right_child=6 8 4 10 5 -7 -8 9 -10 -11 -12
leaf_value=0.018372925273194996 -0.04400211663827841 0.084585742412685794 -0.080830710261267327 0.10510879265170402 0.060229090864495675 -0.070854708424676824 -0.0034770832064113348 -0.10330052004944019 0.060416070034523442 -0.088297310778811935 0.10100879112608351
leaf_weight=47.985042423009872 61.965857326984406 70.442877918481827 56.984904021024704 34.879038453102112 39.088585823774338 47.799148052930832 31.705707058310509 33.003876909613609 44.068155467510223 42.298101127147675 32.929690450429916
leaf_count=150 222 227 198 124 118 171 117 133 144 170 118
internal_value=0.00161123 0.0290133 0.00860817 0.0679994 -0.039192 -0.0118834 -0.0590684 -0.0719087 0.0752843 -0.094873 0.103118
internal_weight=543.151 374.177 259.666 115.794 143.873 86.8877 168.974 137.268 114.511 75.302 67.8087
internal_count=1892 1250 879 392 487 289 642 525 371 303 242
is_linear=0
shrinkage=0.1


Tree=25
num_leaves=12
num_cat=0
split_feature=12 12 1 12 14 12 12 12 12 12 12
split_gain=40.3158 21.6228 35.3274 23.1425 16.4466 4.56282 4.04477 3.42479 2.65983 1.44829 0.0238608
threshold=210.00000000000003 13.500000000000002 1.5000000000000002 89.500000000000014 192.50000000000003 139.50000000000003 4.5000000000000009 41.500000000000007 20.000000000000004 8.5000000000000018 59.500000000000007
decision_type=2 2 2 2 2 2 2 2 2 2 2
left_child=1 6 3 7 -2 -5 -1 8 -3 -8 -9
right_child=4 2 -4 5 -6 -7 9 10 -10 -11 -12
leaf_value=-0.025825640288641063 0.083954581714247634 0.04030398149106329 -0.075081482349762807 -0.010001752651880082 0.0009182276025336035 -0.061456467327369452 -0.080453589650561055 0.051422084608914204 0.0091800868370679918 -0.052828884759059974 0.047828015782758332
leaf_weight=43.436760053038597 67.176597356796265 46.477419286966324 52.994232967495918 35.599848926067352 36.985345661640167 33.405392527580261 31.462269425392151 35.80426336824894 67.097502931952477 47.830066412687302 38.158497497439384
leaf_count=159 226 147 187 135 118 124 140 118 218 192 128
internal_value=-0.001377 -0.0148344 -0.000751324 0.0146031 0.0544704 -0.0349109 -0.0503535 0.032822 0.0219167 -0.06379 0.0495679
internal_weight=536.428 432.266 309.537 256.543 104.162 69.0052 122.729 187.538 113.575 79.2923 73.9628
internal_count=1892 1548 1057 870 344 259 491 611 365 332 246
is_linear=0
shrinkage=0.1


Tree=26
num_leaves=13
num_cat=0
split_feature=0 12 12 13 12 13 13 12 12 13 13 13
split_gain=39.4573 37.3963 10.9346 12.99 8.53524 23.2411 5.37244 1.43152 1.27204 1.08983 0.669401 0.130878
threshold=502.00000000000006 474.00000000000006 97.500000000000014 29629.500000000004 11.500000000000002 5611.0000000000009 23226.500000000004 23.500000000000004 39.500000000000007 41173.500000000007 5195.5000000000009 29900.000000000004
decision_type=2 2 2 2 2 2 2 2 2 2 2 2
left_child=1 2 3 4 10 -6 7 -7 -9 11 -1 -4
right_child=-2 -3 9 -5 5 6 -8 8 -10 -11 -12 -13
leaf_value=-0.054017559981879043 0.075278050344491601 0.10870367536527506 -0.070997262416187659 0.041315763167086378 0.076869499306022437 -0.042202282232797206 -0.078837832085946732 0.0082430055028730465 -0.02939874364665699 -0.046626403203417773 -0.082091940885304429 -0.082583456624714224
leaf_weight=13.430464386940001 55.493421748280525 21.339300155639648 17.965471103787422 31.023132503032684 21.587219804525375 23.93622137606144 24.516586519777775 17.903894200921059 18.006996341049671 16.44965198636055 23.102657467126846 21.318978078663349
leaf_count=118 201 70 171 152 91 149 161 116 133 107 226 197
internal_value=-0.00101826 -0.0179148 -0.0297013 -0.0173231 -0.0300905 -0.0157186 -0.0394103 -0.0232587 -0.0106319 -0.0682362 -0.0717711 -0.0772849
internal_weight=306.074 250.581 229.241 173.507 142.484 105.951 84.3637 59.8471 35.9109 55.7341 36.5331 39.2844
internal_count=1892 1691 1621 1146 994 650 559 398 249 475 344 368
is_linear=0
shrinkage=0.1


Tree=27
num_leaves=15
num_cat=0
split_feature=2 0 12 12 12 12 12 12 12 12 12 12 12 12
split_gain=27.5757 2.74202 2.06897 11.3007 1.50069 0.833441 1.29604 0.408649 0.820448 0.234843 9.09463e-06 3.69418e-06 5.00313e-06 9.09609e-08
threshold=0.79550000000000021 1596.0000000000002 41.500000000000007 31.500000000000004 456.00000000000006 13.500000000000002 20.000000000000004 97.500000000000014 61.500000000000007 4.5000000000000009 9.5000000000000018 298.00000000000006 147.50000000000003 220.00000000000003
decision_type=2 2 2 2 2 2 2 2 2 2 2 2 2 2
left_child=1 2 3 5 7 9 -7 8 -4 -1 -11 12 -9 -14
right_child=-2 -3 4 -5 -6 6 -8 11 -10 10 -12 -13 13 -15
leaf_value=-0.042882595444487089 0.14765580882446858 0.033508321013670468 -0.078091699145375504 0.12153630539462462 0.0069456455763046709 0.014620185758377131 -0.058600467844839979 -0.076492705788330784 -0.021723542150776837 -0.076323246122563373 -0.07654902415340871 -0.076519206825881758 -0.076319572947910752 -0.076344813578840875
leaf_weight=2.9347065817564779 10.988934773951767 6.9627515487372866 5.0011343546211773 4.9925859980285159 3.5236639976501456 4.3738083783537132 5.4045293852686882 2.9432264119386655 5.3385134525597095 4.0305521003901958 3.2010418362915516 2.7849073987454167 2.8519796710461378 2.8590598963201046
leaf_count=95 79 104 143 101 78 148 180 120 155 191 131 112 129 126
internal_value=0.00256901 -0.025303 -0.0334537 -0.0130123 -0.0536001 -0.0466928 -0.0258492 -0.0633959 -0.048988 -0.066741 -0.0764232 -0.076419 -0.0763868 -0.0763322
internal_weight=68.1914 57.2025 50.2397 24.9372 25.3025 19.9446 9.77834 21.7788 10.3396 10.1663 7.23159 11.4392 8.65427 5.71104
internal_count=1892 1813 1709 846 863 745 328 785 298 417 322 487 375 255
is_linear=0
shrinkage=0.1


Tree=28
num_leaves=12
num_cat=0
split_feature=12 12 12 2 12 12 12 12 12 12 12
split_gain=43.772 24.7075 37.2377 22.6644 12.4261 4.90045 11.5204 3.67023 0.577547 0.0482729 0.037851
threshold=11.500000000000002 210.00000000000003 106.00000000000001 0.020000000000000004 4.5000000000000009 20.000000000000004 27.500000000000004 58.000000000000007 288.00000000000006 39.500000000000007 8.5000000000000018
decision_type=2 2 2 2 2 2 2 2 2 2 2
left_child=4 2 3 5 -1 -2 -7 9 -3 -8 -6
right_child=1 8 -4 -5 10 6 7 -9 -10 -11 -12
leaf_value=0.016095222409401241 -0.032403159524725271 -0.077479656423261711 0.063262224099550776 -0.094712442852502757 0.083334960859901025 0.049256503466906056 -0.03146872817254804 0.005715073920191824 -0.059340250370705318 -0.026243101879020316 0.078693943223003562
leaf_weight=50.393578171730042 61.012638553977013 27.392834201455116 67.921598538756371 35.038926139473915 36.961601078510284 37.73860228061676 34.587738916277885 54.587686121463776 48.862014397978783 36.158090367913246 33.5011245906353
leaf_count=159 206 127 230 132 140 120 119 187 217 127 128
internal_value=0.00122199 -0.0145973 -0.00264563 -0.0199214 0.0540115 -0.00822676 0.000818728 -0.0137661 -0.0658564 -0.0287979 0.0811284
internal_weight=524.156 403.3 327.045 259.124 120.856 224.085 163.072 125.334 76.2548 70.7458 70.4627
internal_count=1892 1465 1121 891 427 759 553 433 344 246 268
is_linear=0
shrinkage=0.1


Tree=29
num_leaves=12
num_cat=0
split_feature=12 12 13 13 12 13 13 13 13 12 13
split_gain=32.3029 17.1256 35.9435 15.5645 14.9525 14.0962 10.5632 9.79797 3.79485 2.87407 0.864863
threshold=210.00000000000003 11.500000000000002 22849.000000000004 57444.500000000007 42.500000000000007 6370.5000000000009 30455.000000000004 5042.5000000000009 6769.5000000000009 61.500000000000007 26772.500000000004
decision_type=2 2 2 2 2 2 2 2 2 2 2
left_child=1 7 4 -2 5 -3 10 -1 -9 -8 -4
right_child=3 2 6 -5 -6 -7 9 8 -10 -11 -12
leaf_value=0.0010661632128508649 0.078946985422536128 0.047458814161841174 -0.066230712130972383 -0.0032681131569136813 0.086553155234570148 -0.021942208261824119 -0.029007866070194767 -0.087848053744391905 -0.039924133290096392 0.0097474479194179023 -0.046543305353269178
leaf_weight=27.028294518589973 64.840881794691086 61.868217468261719 50.599448651075363 35.707260638475418 38.344393879175186 55.539090633392334 34.133445873856544 43.80731999874115 26.529157221317291 43.5488421022892 39.916002586483955
leaf_count=109 228 189 214 116 120 178 120 208 110 137 163
internal_value=-0.00117802 -0.0133322 -0.00227918 0.0497503 0.0323359 0.0146289 -0.0343329 -0.0501077 -0.0697724 -0.00728156 -0.0575489
internal_weight=521.862 421.314 323.949 100.548 155.752 117.407 168.198 97.3648 70.3365 77.6823 90.5155
internal_count=1892 1548 1121 344 487 367 634 427 318 257 377
is_linear=0
shrinkage=0.1


Tree=30
num_leaves=12
num_cat=0
split_feature=13 2 12 13 13 12 13 12 13 13 13
split_gain=29.0238 10.775 10.7239 17.9331 10.8288 4.78952 9.24146 8.45779 2.46094 1.75825 0.129731
threshold=69068.500000000015 1.0000000180025095e-35 93.500000000000014 29629.500000000004 9992.0000000000018 11.500000000000002 5611.0000000000009 4.5000000000000009 41173.500000000007 22993.000000000004 29900.000000000004
decision_type=2 2 2 2 2 2 2 2 2 2 2
left_child=1 2 3 4 5 7 -7 -1 10 -6 -4
right_child=-2 -3 8 -5 9 6 -8 -9 -10 -11 -12
leaf_value=0.018925424648943957 0.069507459756660908 0.036650824207511361 -0.06994667863864977 0.081415774092916338 -0.042696250046839683 0.065057169550088181 -0.016184004333794046 -0.08069021366660295 -0.031041243512090196 -0.080886759638701608 -0.081892632660109765
leaf_weight=16.670905470848083 49.271733403205872 35.434612169861794 17.478228770196438 18.983071431517601 25.964871115982533 22.744910567998886 36.426165178418159 17.43912635743618 18.094662047922611 22.502705119550228 18.943952508270741
leaf_count=97 172 143 182 98 206 91 233 203 108 167 192
internal_value=-0.000656268 -0.0144469 -0.0228587 -0.00985939 -0.022083 -0.00215976 0.0150445 -0.0320042 -0.0611847 -0.0604275 -0.07616
internal_weight=299.955 250.683 215.249 160.732 141.749 93.2811 59.1711 34.11 54.5168 48.4676 36.4222
internal_count=1892 1720 1577 1095 997 624 324 300 482 373 374
is_linear=0
shrinkage=0.1


Tree=31
num_leaves=15
num_cat=0
split_feature=13 0 12 12 13 12 12 13 12 13 12 13 12 13
split_gain=37.5248 6.95713 2.48098 8.72973 1.97981 1.93644 1.51317 0.472428 0.157227 0.000247405 0.00014916 0.000226146 2.81391e-05 2.53331e-06
threshold=150316.00000000003 1596.0000000000002 41.500000000000007 31.500000000000004 5537.5000000000009 9.5000000000000018 444.00000000000006 41173.500000000007 22.500000000000004 21561.000000000004 89.500000000000014 25426.000000000004 202.00000000000003 6229.5000000000009
decision_type=2 2 2 2 2 2 2 2 2 2 2 2 2 2
left_child=1 2 3 4 5 -1 7 10 9 13 11 -4 -12 -6
right_child=-2 -3 6 -5 8 -7 -8 -9 -10 -11 12 -13 -14 -15
leaf_value=-0.050014654129634122 0.19167675317267899 0.088809326223449558 -0.076428531886868697 0.093509873253212764 -0.076520977456330699 0.058021573731894073 0.0015714621890948141 -0.047489940886569104 -0.053204862626288124 -0.077567292871823679 -0.076528109110703027 -0.07757114283063242 -0.0761713388150142 -0.076387078966891897
leaf_weight=3.7571104038506808 9.0792901515960676 4.777166821062564 3.4901054035872319 5.7855462878942481 2.8141590971499664 2.9710225872695446 3.7618482373654833 8.5060141496360284 4.1488356590270987 3.0838581463322043 5.3214805256575328 3.4389871899038553 3.7817950416356325 2.8378676157444715
leaf_count=157 44 90 149 103 115 114 83 147 143 97 236 94 191 129
internal_value=0.00253283 -0.0268348 -0.0371227 -0.0144334 -0.0462753 -0.0023078 -0.0574856 -0.0665393 -0.0692342 -0.0768468 -0.076646 -0.0769956 -0.0763799 -0.0764537
internal_weight=67.5551 58.4758 53.6986 25.3984 19.6129 6.72813 28.3002 24.5384 12.8847 8.73588 16.0324 6.92909 9.10328 5.65203
internal_count=1892 1848 1758 858 755 271 900 817 484 341 670 243 427 244
is_linear=0
shrinkage=0.1


Tree=32
num_leaves=14
num_cat=0
split_feature=13 13 12 12 13 12 12 12 13 13 13 12 12
split_gain=64.2608 27.7238 51.3226 16.8402 13.3948 30.2737 11.8037 18.1045 1.37814 0.214844 0.17617 0.0224728 0.0195998
threshold=29629.500000000004 22692.000000000004 11.500000000000002 4.5000000000000009 6453.0000000000009 30.000000000000004 147.50000000000003 246.00000000000003 26772.500000000004 43751.000000000007 41173.500000000007 72.000000000000014 8.5000000000000018
decision_type=2 2 2 2 2 2 2 2 2 2 2 2 2
left_child=1 2 3 -1 -4 -6 9 -8 11 -2 -9 -3 -5
right_child=6 8 4 12 5 -7 7 10 -10 -11 -12 -13 -14
leaf_value=0.013252756770107059 -0.078204377462790201 0.072513149314465369 -0.074295407416574685 0.095461049458105657 0.053772566731787999 -0.067916672841593098 0.038141463653682019 -0.065810463300583127 0.051252049792679201 -0.089404594156462014 -0.054824163032558576 0.076111179779805319 0.091788197512919695
leaf_weight=47.207693785429001 33.546321153640747 35.569843918085098 53.603504091501236 29.513318181037903 39.006270259618759 42.959493771195412 27.792496979236603 26.420838385820389 41.582588315010071 34.990218430757523 32.611660480499268 33.906374126672745 28.617748707532883
leaf_count=149 110 117 198 122 118 165 106 132 144 142 152 119 118
internal_value=0.000669839 0.0243154 0.00525961 0.0576215 -0.0354261 -0.0100066 -0.0528984 -0.0284092 0.0656511 -0.0839225 -0.0597412 0.0742691 0.0936529
internal_weight=507.328 351.967 240.908 105.339 135.569 81.9658 155.362 86.825 111.059 68.5365 59.0325 69.4762 58.1311
internal_count=1892 1250 870 389 481 283 642 390 380 252 284 236 240
is_linear=0
shrinkage=0.1


Tree=33
num_leaves=12
num_cat=0
split_feature=8 12 12 12 12 1 12 12 12 12 12
split_gain=27.9277 29.9405 16.8505 13.5957 12.8744 5.77877 3.95628 1.90942 1.37921 1.86355 1.17235
threshold=1.0000000180025095e-35 13.500000000000002 210.00000000000003 130.00000000000003 352.00000000000006 1.0000000180025095e-35 4.5000000000000009 74.000000000000014 42.500000000000007 20.000000000000004 8.5000000000000018
decision_type=2 2 2 2 2 2 2 2 2 2 2
left_child=1 6 3 5 -4 7 -1 8 9 -3 -8
right_child=-2 2 4 -5 -6 -7 10 -9 -10 -11 -12
leaf_value=-0.013703914533161932 -0.085353251310357384 0.036219919003365068 0.093248385521906951 -0.048811552014771865 0.016440034598101002 -0.019881464710603564 -0.072275894002573809 0.0028517195183374484 0.040330293495759464 0.0098994015254370987 -0.045502673660645802
leaf_weight=33.341623961925507 36.331028997898102 45.868345662951469 46.550878569483757 37.759904891252518 41.081328004598618 38.460233703255653 26.246585577726364 40.277362376451492 53.516860395669937 65.048631310462952 43.398446917533875
leaf_count=128 129 145 179 150 136 141 139 156 182 215 192
internal_value=-0.00087169 0.00563727 0.0189571 0.00701501 0.0572412 0.0156838 -0.0420312 0.0223657 0.0271455 0.0207839 -0.0555925
internal_weight=507.881 471.55 368.564 280.931 87.6322 243.171 102.987 204.711 164.434 110.917 69.645
internal_count=1892 1763 1304 989 315 839 459 698 542 360 331
is_linear=0
shrinkage=0.1


Tree=34
num_leaves=15
num_cat=0
split_feature=1 12 12 13 12 13 1 13 12 12 13 13 13 13
split_gain=25.0996 21.949 10.8627 25.3919 9.71228 14.1503 5.1999 1.52806 0.904678 0.832551 0.665206 0.642442 0.136738 1.59145e-05
threshold=149.00000000000003 474.00000000000006 61.500000000000007 29629.500000000004 11.500000000000002 5611.0000000000009 4.5000000000000009 22606.000000000004 93.500000000000014 22.500000000000004 41173.500000000007 5131.5000000000009 29900.000000000004 6032.0000000000009
decision_type=2 2 2 2 2 2 2 2 2 2 2 2 2 2
left_child=1 2 3 4 11 -6 8 9 -4 -7 12 -1 -10 -13
right_child=-2 -3 6 -5 5 7 -8 -9 10 -11 -12 13 -14 -15
leaf_value=-0.052237611070690165 0.084038455870000889 0.080179905550135502 -0.042017646156191468 0.077929130238458932 0.060231801738142271 -0.037106007876752826 0.005231518546825735 -0.054889480311307998 -0.068455640871293702 -0.010716751532361304 -0.050099141923562074 -0.081188973885283622 -0.081180111244173125 -0.081364488851560265
leaf_weight=12.0484252423048 31.543391168117523 24.305408030748367 19.929529666900635 30.490713968873024 23.237851068377495 19.687236666679382 14.837722614407538 18.230627380311489 16.134484775364399 30.440146341919899 15.493217065930365 11.00054468214512 17.720517061650753 9.7404839992523176
leaf_count=111 106 76 144 122 91 125 60 122 182 210 106 125 197 115
internal_value=-0.000257823 -0.0103567 -0.0195642 -0.00385253 -0.0238998 -0.00718096 -0.048493 -0.0300975 -0.0599996 -0.021081 -0.0672617 -0.070603 -0.0751159 -0.0812714
internal_weight=294.84 263.297 238.992 154.876 124.385 91.5959 84.1155 68.358 69.2777 50.1274 49.3482 32.7895 33.855 20.741
internal_count=1892 1786 1710 1021 899 548 689 457 629 335 485 351 379 240
is_linear=0
shrinkage=0.1


Tree=35
num_leaves=15
num_cat=0
split_feature=2 0 0 1 12 12 12 12 12 12 12 12 12 12
split_gain=17.8212 1.82037 9.89628 2.04832 2.12703 9.66145 1.58186 1.1475 0.839954 0.571423 1.13589 0.185242 2.08638e-06 1.49375e-06
threshold=0.79550000000000021 5994.0000000000009 1596.0000000000002 2.5000000000000004 41.500000000000007 31.500000000000004 427.00000000000006 13.500000000000002 20.000000000000004 97.500000000000014 61.500000000000007 6.5000000000000009 162.00000000000003 282.00000000000006
decision_type=2 2 2 2 2 2 2 2 2 2 2 2 2 2
left_child=1 2 3 4 5 7 9 11 -9 10 -6 -1 -11 -14
right_child=-2 -3 -4 -5 6 -7 -8 8 -10 12 -12 -13 13 -15
leaf_value=-0.045046264983454466 0.10889228156282814 -0.086193065432562332 0.14191932644605348 -0.078974517609277581 -0.077671109285459006 0.12371398525552491 0.021427157284521978 0.021446752833290048 -0.046360318434796412 -0.07618780515718597 -0.00051648239311894014 -0.076194183188754039 -0.076036972488955606 -0.07614373944353714
leaf_weight=3.1886120997369307 12.772381860762833 4.1399089880287638 3.6249119341373435 7.1267540901899329 3.7114264182746437 4.9210302643477908 3.0153224654495707 4.0753139927983284 3.3111797235906124 2.6532458532601577 3.9272617008537054 4.7590058939531446 3.2739784400910139 2.1848927475512028
leaf_count=141 79 38 66 172 129 84 70 145 137 136 140 256 184 115
internal_value=0.00268281 -0.0224791 -0.0171796 -0.0296768 -0.0206731 0.00179962 -0.044929 -0.0373252 -0.00894946 -0.0576322 -0.0380038 -0.0636975 -0.0761151 -0.0760797
internal_weight=66.6852 53.9128 49.7729 46.148 39.0213 20.2551 18.7661 15.3341 7.38649 15.7508 7.63869 7.94762 8.11212 5.45887
internal_count=1892 1813 1775 1709 1537 763 774 679 282 704 269 397 435 299
is_linear=0
shrinkage=0.1


Tree=36
num_leaves=13
num_cat=0
split_feature=12 1 12 12 12 12 12 12 12 12 12 12
split_gain=28.2152 25.6902 29.3981 30.0049 9.47555 6.22576 2.16579 3.06339 2.69236 0.15293 0.0366869 0.0293831
threshold=11.500000000000002 16.500000000000004 210.00000000000003 91.500000000000014 3.5000000000000004 141.50000000000003 30.000000000000004 58.000000000000007 22.500000000000004 374.00000000000006 41.500000000000007 8.5000000000000018
decision_type=2 2 2 2 2 2 2 2 2 2 2 2
left_child=4 2 3 6 -1 -5 8 10 -2 -4 -8 -6
right_child=1 -3 9 5 11 -7 7 -9 -10 -11 -12 -13
leaf_value=0.012079407285590866 -0.030032184212022136 0.057466490052915799 -0.090971008748218868 0.018994718972155822 0.073010626176616619 0.078264577311995973 -0.049753042890575215 -0.017445754631369322 0.0045461192820485342 -0.080547419362414621 -0.054592930987029956 0.068631334163658519
leaf_weight=49.255318716168404 61.857741579413414 45.918090775609016 34.730237379670143 37.0601437240839 32.466264918446541 33.964662924408913 30.874998986721039 42.574502468109131 35.40677784383297 23.667053386569023 31.785282522439957 29.012241154909134
leaf_count=157 218 171 189 137 142 121 115 160 117 115 122 128
internal_value=0.000370035 -0.0126395 -0.022338 -0.00858683 0.0447605 0.0473381 -0.028202 -0.0381444 -0.0174448 -0.0867466 -0.0522081 0.070944
internal_weight=488.573 377.839 331.921 273.524 110.734 71.0248 202.499 105.235 97.2645 58.3973 62.6603 61.4785
internal_count=1892 1465 1294 990 427 258 732 397 335 304 237 270
is_linear=0
shrinkage=0.1


Tree=37
num_leaves=12
num_cat=0
split_feature=8 12 13 12 13 12 13 13 13 12 12
split_gain=24.7715 23.6536 20.018 35.2324 17.0085 8.60471 7.95439 6.90274 4.96809 3.10003 0.67612
threshold=1.0000000180025095e-35 13.500000000000002 22359.000000000004 210.00000000000003 46463.000000000007 30.000000000000004 30455.000000000004 5038.0000000000009 5873.0000000000009 63.500000000000007 79.500000000000014
decision_type=2 2 2 2 2 2 2 2 2 2 2
left_child=1 7 5 6 -5 -3 10 -1 -9 -8 -4
right_child=-2 2 3 4 -6 -7 9 8 -10 -11 -12
leaf_value=0.0065434081447190932 -0.081451628764617576 0.02810484321975068 -0.056477863101670189 0.093958811766489223 0.0035506374924330801 0.082782076020714301 -0.025011665460252044 -0.081604245590273808 -0.029074165334146168 0.016076232928375515 -0.038649341794407967
leaf_weight=25.690751373767853 35.189638391137123 68.020814716815948 42.205565094947815 46.361038237810135 37.755210548639297 49.894297063350677 33.763945400714874 34.022700071334839 38.240217879414558 40.256648048758507 42.884920611977577
leaf_count=108 129 213 167 190 125 160 121 177 174 128 200
internal_value=-0.000592103 0.00560577 0.0174271 0.00103447 0.0533795 0.0512408 -0.0266384 -0.0379781 -0.0538063 -0.00266571 -0.0474924
internal_weight=494.286 459.096 361.142 243.227 84.1162 117.915 159.111 97.9537 72.2629 74.0206 85.0905
internal_count=1892 1763 1304 931 315 373 616 459 351 249 367
is_linear=0
shrinkage=0.1


Tree=38
num_leaves=14
num_cat=0
split_feature=0 12 12 12 13 13 13 13 12 13 12 13 13
split_gain=22.5626 24.996 6.41147 10.552 7.27401 9.82515 2.52392 1.19069 1.15829 0.603541 0.533675 0.16429 0.0538357
threshold=502.00000000000006 558.00000000000011 59.500000000000007 11.500000000000002 5611.0000000000009 29436.500000000004 41173.500000000007 6581.5000000000009 97.500000000000014 5180.0000000000009 25.500000000000004 29900.000000000004 6156.5000000000009
decision_type=2 2 2 2 2 2 2 2 2 2 2 2 2
left_child=1 2 3 9 -5 7 8 -6 -4 -1 -9 -10 -11
right_child=-2 -3 6 4 5 -7 -8 10 11 12 -12 -13 -14
leaf_value=-0.045502471406840932 0.05493306688606453 0.10220224656619965 -0.040383649811642303 0.051803350506955927 -0.010764496694044973 0.044999811492288259 -0.02402976934144993 -0.054796282621876614 -0.065616650622213266 -0.080500767635658887 -0.031758303484410146 -0.080541218677321516 -0.069699397034330979
leaf_weight=10.725651465356352 59.026450574398041 17.029828011989594 16.169577024877071 24.088053092360497 19.4854466766119 23.25078909099102 28.520805738866329 16.340776711702347 13.703026406466963 9.6225417628884333 26.140335731208324 15.973722748458384 8.8659036681056005
leaf_count=114 201 52 140 91 122 94 161 123 171 123 190 197 113
internal_value=-0.00021756 -0.0143764 -0.0237021 -0.0109864 0.00328241 -0.0104328 -0.0473869 -0.031232 -0.0619172 -0.0643735 -0.0406201 -0.0736499 -0.0753211
internal_weight=288.943 229.916 212.887 138.519 109.305 85.2173 74.3671 61.9666 45.8463 29.2141 42.4811 29.6767 18.4884
internal_count=1892 1691 1639 970 620 529 669 435 508 350 313 368 236
is_linear=0
shrinkage=0.1


Tree=39
num_leaves=15
num_cat=0
split_feature=1 0 2 0 14 14 14 14 14 14 14 14 14 14
split_gain=16.5955 35.6195 5.58995 1.85927 2.13874 2.75233 3.27862 2.95786 1.97591 0.702273 0.235397 9.54615e-06 5.76386e-06 4.72789e-06
threshold=1.5000000000000002 50.500000000000007 0.024500000000000004 1.0000000180025095e-35 6.5000000000000009 20.500000000000004 15.500000000000002 8.5000000000000018 240.00000000000003 48.500000000000007 33.500000000000007 145.50000000000003 2.5000000000000004 75.500000000000014
decision_type=2 2 2 2 2 2 2 2 2 2 2 2 2 2
left_child=3 -2 -3 4 12 6 7 -6 9 10 -7 13 -1 -11
right_child=1 2 -4 -5 5 8 -8 -9 -10 11 -12 -13 -14 -15
leaf_value=-0.076276546665503306 0.22293874605821218 0.040687095677903233 -0.082417875273254004 -0.086393345045028602 0.053074401149921492 -0.048840333590180141 0.085300482583147208 -0.076494751307794817 0.040714639597596421 -0.07611361029010294 -0.011020682634907561 -0.076249857062511431 -0.076091244956201065 -0.075924005194201061
leaf_weight=2.7744895331561557 9.240857198834421 6.7122200764715663 8.1882292125374061 6.1047662645578376 3.0805756412446517 3.5950569696724433 4.8569917492568493 4.115858182311058 2.5229418687522402 2.1332220854237676 3.0352376755326986 2.0346895456314087 4.2499340614303946 3.4292451264336705
leaf_count=134 54 149 128 51 106 152 79 175 57 119 110 107 255 216
internal_value=0.00264462 0.0686951 -0.0269627 -0.0353814 -0.0266895 -0.014624 0.0218164 -0.0210301 -0.0408461 -0.0553091 -0.0315271 -0.0760645 -0.0761644 -0.0759967
internal_weight=66.0743 24.1413 14.9004 41.933 35.8282 28.8038 12.0534 7.19643 16.7504 14.2275 6.63029 7.59716 7.02442 5.56247
internal_count=1892 331 277 1561 1510 1121 360 281 761 704 262 442 389 335
is_linear=0
shrinkage=0.1


Tree=40
num_leaves=13
num_cat=0
split_feature=13 8 1 12 13 13 13 12 12 12 12 1
split_gain=46.5176 14.4309 37.3165 51.1409 39.5021 16.1665 28.3403 28.0238 2.75212 2.57441 2.16924 2.02623
threshold=39832.000000000007 1.0000000180025095e-35 1.0000000180025095e-35 11.500000000000002 6453.0000000000009 29436.500000000004 22993.000000000004 33.500000000000007 99.500000000000014 6.5000000000000009 186.00000000000003 1.0000000180025095e-35
decision_type=2 2 2 2 2 2 2 2 2 2 2 2
left_child=1 2 3 9 -5 6 7 -6 -8 -1 -7 -2
right_child=11 -3 -4 4 5 10 8 -9 -10 -11 -12 -13
leaf_value=0.1060522468146959 -0.095089251335683647 0.071498088304276508 -0.094667372098380803 -0.09206117279730372 0.044425980112517707 -0.015400763423141284 0.084925091794168572 -0.083387300880004747 0.04839678858110219 0.069100860536406447 -0.054410960808954911 -0.06146931619434251
leaf_weight=35.111249193549156 34.999353677034378 34.409470960497856 34.842533722519875 45.262728303670883 34.353465437889099 29.34632471203804 43.326417505741119 34.26420584321022 39.365913420915604 40.722196489572525 27.718099743127823 36.749115765094757
leaf_count=133 178 115 111 182 107 94 145 142 161 197 151 163
internal_value=-0.00374321 0.00959547 0.00374876 0.0141566 -0.00738612 0.0110069 0.0281123 -0.0193975 0.0675357 0.0862095 -0.0343493 -0.0778693
internal_weight=470.471 398.723 364.313 329.471 253.637 208.374 151.31 68.6177 82.6923 75.8334 57.0644 71.7485
internal_count=1879 1538 1423 1312 982 800 555 249 306 330 245 341
is_linear=0
shrinkage=0.1


Tree=41
num_leaves=12
num_cat=0
split_feature=8 12 0 12 12 12 12 12 12 12 12
split_gain=25.1162 19.7329 15.5321 11.783 15.7649 6.93569 4.04274 1.44059 2.29628 1.72359 0.523429
threshold=1.0000000180025095e-35 13.500000000000002 16.500000000000004 210.00000000000003 139.50000000000003 372.00000000000006 4.5000000000000009 42.500000000000007 20.000000000000004 81.500000000000014 8.5000000000000018
decision_type=2 2 2 2 2 2 2 2 2 2 2
left_child=1 6 3 4 7 -5 -1 8 -3 -9 -8
right_child=-2 2 -4 5 -6 -7 10 9 -10 -11 -12
leaf_value=-0.0020786868421825665 -0.080298334290010265 0.038572500983474006 -0.043821929540532746 0.090965052402207106 -0.046621235847963093 0.02841360486662893 -0.05711390878613222 0.047086206745879017 0.0078240738436446185 0.02062109867940469 -0.03810919909697149
leaf_weight=33.943974748253822 33.242368787527084 38.945331782102585 33.276316359639168 40.404835671186447 33.156240954995155 31.581345424056053 22.462814092636108 59.624989748001099 64.529194623231888 41.902851566672325 40.84227491915226
leaf_count=135 127 123 130 183 140 106 140 210 217 170 198
internal_value=0.00352001 0.00984293 0.0211037 0.0280697 0.0173536 0.0635229 -0.0299228 0.0277006 0.019397 0.0361635 -0.0448527
internal_weight=473.913 440.67 343.421 310.145 238.159 71.9862 97.2491 205.002 103.475 101.528 63.3051
internal_count=1879 1752 1279 1149 860 289 473 720 340 380 338
is_linear=0
shrinkage=0.1


Tree=42
num_leaves=13
num_cat=0
split_feature=1 12 12 13 13 12 1 12 13 13 13 13
split_gain=20.016 19.6488 9.18855 20.6918 6.56206 12.2365 4.62443 1.1261 1.26173 0.914237 1.06602 0.475041
threshold=107.50000000000001 469.00000000000006 61.500000000000007 29436.500000000004 5644.5000000000009 11.500000000000002 1.5000000000000002 248.00000000000003 29642.000000000004 22993.000000000004 7259.0000000000009 25426.000000000004
decision_type=2 2 2 2 2 2 2 2 2 2 2 2
left_child=1 2 3 4 5 -1 7 8 11 10 -6 -4
right_child=-2 -3 6 -5 9 -7 -8 -9 -10 -11 -12 -13
leaf_value=-0.055966780550051866 0.066340745334661722 0.076158179757903441 -0.051328251964451815 0.071580224078066579 -0.049342942729353585 0.050863185508411207 0.00078328074706711891 -0.083104637379986579 -0.032853712298369322 -0.065266553566260377 -0.021007266296315791 -0.080237121780881382
leaf_weight=18.298498760908842 40.936358019709587 24.166785806417465 10.073835894465448 28.824802756309509 30.140483126044273 25.894515872001648 15.600248917937277 16.015545822679996 18.992446701973677 14.348534803837536 23.730074319988489 13.044689103960989
leaf_count=213 133 74 111 109 240 98 66 178 171 112 207 167
internal_value=0.00172758 -0.00933344 -0.0189446 -0.00400708 -0.0233892 0.00662932 -0.0475602 -0.0605348 -0.0519511 -0.0428356 -0.036861 -0.0676402
internal_weight=280.067 239.13 214.964 141.237 112.412 44.193 73.7268 58.1265 42.111 68.2191 53.8706 23.1185
internal_count=1879 1746 1672 979 870 311 693 627 449 559 447 278
is_linear=0
shrinkage=0.1


Tree=43
num_leaves=15
num_cat=0
split_feature=13 9 12 13 13 13 12 13 12 12 13 12 12 13
split_gain=20.4132 3.7521 2.33733 7.81209 2.07334 1.00927 0.294461 0.0271923 0.000398276 0.000913396 9.50505e-05 6.58098e-05 2.08424e-05 9.74577e-08
threshold=150316.00000000003 1.0000000180025095e-35 99.500000000000014 28882.000000000004 5537.5000000000009 5131.5000000000009 532.00000000000011 66159.500000000015 31.500000000000004 42.500000000000007 44097.500000000007 202.00000000000003 11.500000000000002 6824.0000000000009
decision_type=2 2 2 2 2 2 2 2 2 2 2 2 2 2
left_child=1 2 3 4 5 -1 7 10 12 -10 11 -4 -6 -14
right_child=-2 -3 6 -5 8 -7 -8 -9 9 -11 -12 -13 13 -15
leaf_value=-0.045110495118258744 0.12106101545063928 0.056731585760933782 -0.076468979428581191 0.043241929073376116 -0.076076705534402878 0.038894393355459661 -0.043339415669862123 -0.087649670950039227 -0.078374463323260452 -0.076320636439963979 -0.0769721084643058 -0.075857920641496324 -0.076417677260369535 -0.076444212021018199
leaf_weight=3.1770130125805762 10.528432622551916 4.4316116776317349 4.2184722498059255 11.252522580325602 2.3837705012410906 2.6011956781148911 2.8681239318102589 2.7779551371932021 4.1554474681615812 4.5214603180065751 2.1406052429229021 3.027286559343338 2.9314331728965044 2.6223945301026106
leaf_count=149 45 84 237 164 162 122 63 21 76 222 77 211 125 121
internal_value=-0.00614325 -0.0313603 -0.0393802 -0.0247332 -0.0588913 -0.00729373 -0.0721628 -0.0789588 -0.0768359 -0.0773042 -0.0763866 -0.0762137 -0.076324 -0.0764302
internal_weight=63.6377 53.1093 48.6777 33.6452 22.3927 5.77821 15.0324 12.1643 16.6145 8.67691 9.38636 7.24576 7.9376 5.55383
internal_count=1879 1834 1750 1141 977 271 609 546 706 298 525 448 408 246
is_linear=0
shrinkage=0.1


Tree=44
num_leaves=12
num_cat=0
split_feature=13 0 12 13 12 12 12 13 13 0 13
split_gain=39.9156 20.426 21.1969 25.7053 10.6351 12.6541 10.5991 18.8045 18.6511 2.04201 1.52369
threshold=39832.000000000007 743.00000000000011 11.500000000000002 6370.5000000000009 204.00000000000003 145.50000000000003 25.500000000000004 22606.000000000004 26690.500000000004 1.0000000180025095e-35 6136.0000000000009
decision_type=2 2 2 2 2 2 2 2 2 2 2
left_child=1 2 10 -4 5 6 -5 -8 -9 -2 -1
right_child=9 -3 3 4 -6 -7 7 8 -10 -11 -12
leaf_value=0.070726873007228144 -0.092992059515372733 -0.071832975656844975 -0.067336968851152729 0.057573824298921807 -0.042010264211841522 0.080110573657934753 -0.054750309373855381 0.065432210222992254 -0.028795122295324493 -0.058068147664437443 0.041610930694124672
leaf_weight=52.53058297932148 32.104676343500614 29.037350967526436 44.507769405841827 40.048157811164856 28.097429424524307 33.186441645026207 43.649437591433525 49.952546209096909 36.250824183225632 34.988058969378471 27.321890220046043
leaf_count=237 178 94 184 127 164 124 182 179 126 163 121
internal_value=-0.00360668 0.00880988 0.015396 0.00225523 0.0156531 0.023631 0.0125989 -0.00127191 0.0258071 -0.0747797 0.0607647
internal_weight=451.675 384.582 355.545 275.693 231.185 203.087 169.901 129.853 86.2034 67.0927 79.8525
internal_count=1879 1538 1444 1086 902 738 614 487 305 341 358
is_linear=0
shrinkage=0.1


Tree=45
num_leaves=12
num_cat=0
split_feature=8 14 13 14 14 14 14 14 13 13 13
split_gain=20.6533 14.7645 18.018 24.8467 13.4378 8.19208 7.50573 13.452 19.5484 6.36215 7.57486
threshold=1.0000000180025095e-35 6.5000000000000009 22606.000000000004 104.50000000000001 203.50000000000003 14.500000000000002 71.500000000000014 29.500000000000004 29163.500000000004 5064.0000000000009 5923.0000000000009
decision_type=2 2 2 2 2 2 2 2 2 2 2
left_child=1 9 5 6 -5 -3 7 -4 -9 -1 -11
right_child=-2 2 3 4 -6 -7 -8 8 -10 10 -12
leaf_value=0.011760472786845527 -0.074600064263055113 0.027067453335158156 -0.047727328222152046 0.081900715097720012 -0.0058865790693877979 0.081282521018975401 -0.066172035948414851 -0.033313334701473692 0.076278488894664292 -0.083650382598889919 -0.013757135480987587
leaf_weight=29.915392473340034 31.711113005876541 62.089261800050735 52.561037585139275 46.969576716423035 27.731554985046387 50.572444409132004 29.936659395694733 33.285212561488152 31.85139362514019 27.497566230595112 35.557216659188271
leaf_count=134 127 195 211 221 91 172 130 156 103 162 177
internal_value=0.00326933 0.00903922 0.0188241 0.00231526 0.0493111 0.0514039 -0.0214641 -0.0100925 0.0202764 -0.0262184 -0.0442369
internal_weight=459.678 427.967 334.997 222.335 74.7011 112.662 147.634 117.698 65.1366 92.9702 63.0548
internal_count=1879 1752 1279 912 312 367 600 470 259 473 339
is_linear=0
shrinkage=0.1


Tree=46
num_leaves=13
num_cat=0
split_feature=0 12 12 12 12 2 12 12 12 12 12 12
split_gain=20.0688 17.6408 8.56903 11.8966 4.64377 3.84558 1.71887 0.815098 0.367406 0.114579 0.33577 0.00220674
threshold=19.500000000000004 469.00000000000006 69.500000000000014 11.500000000000002 15.500000000000002 0.043500000000000004 27.500000000000004 248.00000000000003 42.500000000000007 93.500000000000014 130.00000000000003 6.5000000000000009
decision_type=2 2 2 2 2 2 2 2 2 2 2 2
left_child=1 2 3 11 -5 -2 -6 9 -8 -4 -11 -1
right_child=5 -3 7 4 6 -7 8 -9 -10 10 -12 -13
leaf_value=-0.080595676844734371 0.022634000474687107 0.071219685010712797 -0.045096156021872613 0.036882920458194739 -0.034432714860723142 0.06521541259483063 0.0084387697674375116 -0.082310207199627436 -0.0093326181921127311 -0.072426099147015685 -0.048605189419637464 -0.078576744032999218
leaf_weight=10.847285553812982 47.12548816204071 20.406069755554199 10.305207274854181 27.832004487514496 22.193993739783764 38.565873295068741 22.838229857385159 14.227120667695997 23.711393557488918 9.5169371664524096 15.644605442881582 10.80821071565151
leaf_count=136 179 62 93 118 156 138 133 177 169 106 215 197
internal_value=0.00167811 -0.0165766 -0.0272455 -0.0126004 0.00242052 0.041798 -0.0115322 -0.0620891 -0.000613599 -0.0539776 -0.0576151 -0.079588
internal_weight=274.022 188.331 167.925 118.231 96.5756 85.6914 68.7436 49.6939 46.5496 35.4667 25.1615 21.6555
internal_count=1879 1562 1500 909 576 317 458 591 302 414 321 333
is_linear=0
shrinkage=0.1


Tree=47
num_leaves=15
num_cat=0
split_feature=13 9 0 13 13 12 13 13 12 12 12 12 12 12
split_gain=16.6371 3.25793 2.3959 1.48777 3.35046 6.89922 2.25502 1.00685 0.319466 0.00022269 0.000904956 0.000120363 1.96697e-05 1.82245e-05
threshold=150316.00000000003 1.0000000180025095e-35 735.50000000000011 72134.000000000015 28882.000000000004 99.500000000000014 5537.5000000000009 5180.0000000000009 390.00000000000006 42.500000000000007 31.500000000000004 202.00000000000003 102.00000000000001 13.500000000000002
decision_type=2 2 2 2 2 2 2 2 2 2 2 2 2 2
left_child=1 2 3 4 6 -6 7 -1 11 10 13 -7 -11 -8
right_child=-2 -3 -4 -5 5 8 9 -9 -10 12 -12 -13 -14 -15
leaf_value=-0.042281914178760753 0.10574988665788405 0.05038670618070884 0.046303477183697123 -0.084659026277812813 0.081539811683418617 -0.076894762211510037 -0.076018105384502335 0.044285883529147946 -0.030070190548530815 -0.076260312738084132 -0.078119123997542714 -0.075892610385509471 -0.07587828782166911 -0.076346398163199714
leaf_weight=2.9266264084726599 11.071044489741324 4.6423568967729798 3.1792896240949622 7.3411612696945658 6.2091077826917154 1.9742364874109624 2.7655762080103177 2.4837935483083129 2.1296601435169578 4.0931527698412529 3.8679628297686577 3.049926582723856 2.0094144251197577 4.3517496837303042
leaf_count=152 45 84 59 77 110 92 195 113 70 222 76 226 149 209
internal_value=-0.00537293 -0.029484 -0.0374783 -0.0436439 -0.0352477 0.00441332 -0.0588044 -0.00254072 -0.0625281 -0.0766189 -0.0768879 -0.0762864 -0.0761345 -0.0762188
internal_weight=62.0951 51.024 46.3817 43.2024 35.8612 13.3629 22.4983 5.41042 7.15382 17.0879 10.9853 5.02416 6.10257 7.11733
internal_count=1879 1834 1750 1691 1614 498 1116 265 388 851 480 318 371 404
is_linear=0
shrinkage=0.1


Tree=48
num_leaves=13
num_cat=0
split_feature=13 0 12 13 12 12 12 13 13 14 13 13
split_gain=34.0497 17.4077 17.4989 22.3748 8.30047 10.0048 9.0566 14.579 19.2823 2.10525 1.5168 3.47389
threshold=39832.000000000007 743.00000000000011 11.500000000000002 6370.5000000000009 204.00000000000003 145.50000000000003 25.500000000000004 22489.000000000004 26772.500000000004 187.50000000000003 6156.5000000000009 5101.0000000000009
decision_type=2 2 2 2 2 2 2 2 2 2 2 2
left_child=1 2 10 -4 5 6 -5 -8 -9 -2 11 -1
right_child=9 -3 3 4 -6 -7 7 8 -10 -11 -12 -13
leaf_value=0.040258195428320515 -0.084327761357439773 -0.067084665715397049 -0.064231384562262767 0.053672839857350635 -0.037921498995022875 0.073397607321033287 -0.050871496165502232 0.060515721542768665 -0.036764949767869787 -0.045054170976597481 0.036932001488847892 0.092989077741570475
leaf_weight=24.830199524760246 42.586658179759979 28.522983580827713 42.634617298841476 39.655545353889465 26.3088323995471 31.640966758131981 40.117675989866257 51.755185693502426 33.605438366532326 20.086883172392845 25.79539430141449 25.146028622984886
leaf_count=104 225 94 184 127 164 124 177 193 117 116 118 136
internal_value=-0.00357947 0.00796579 0.0142344 0.00214626 0.014832 0.0218852 0.012015 -0.00115037 0.0222175 -0.0717406 0.0566254 0.0667903
internal_weight=432.686 370.013 341.49 265.718 223.084 196.775 165.134 125.478 85.3606 62.6735 75.7716 49.9762
internal_count=1879 1538 1444 1086 902 738 614 487 310 341 358 240
is_linear=0
shrinkage=0.1


Tree=49
num_leaves=12
num_cat=0
split_feature=8 14 14 14 14 13 14 13 14 13 13
split_gain=18.39 11.7163 11.8061 11.515 10.7123 17.4886 11.1358 15.2157 7.1234 5.78386 7.30142
threshold=1.0000000180025095e-35 104.50000000000001 71.500000000000014 203.50000000000003 6.5000000000000009 22606.000000000004 29.500000000000004 29163.500000000004 16.500000000000004 5064.0000000000009 5923.0000000000009
decision_type=2 2 2 2 2 2 2 2 2 2 2
left_child=1 2 4 -3 9 8 -7 -8 -6 -1 -11
right_child=-2 3 -4 -5 5 6 7 -9 -10 10 -12
leaf_value=0.013601478153619168 -0.071462136530837564 0.07804147112369425 -0.060831965234943976 -0.0048073387675690027 0.027536275320029231 -0.044025754707975553 -0.029902959462290463 0.067551007677016481 0.080390454952398244 -0.081242408912590033 -0.010585425186598165
leaf_weight=29.522269770503044 30.724562168121338 43.142393320798874 28.254939243197441 27.450137794017792 70.224958807229996 50.746810495853424 32.136935457587242 31.94800940155983 40.037207514047623 25.348625317215919 34.57096828520298
leaf_count=134 127 221 130 91 222 211 156 103 145 162 177
internal_value=0.00317943 0.00872714 0.00108731 0.0458254 0.00664955 0.0182826 -0.00903092 0.0186804 0.0467281 -0.0226268 -0.0404764
internal_weight=444.108 413.383 342.791 70.5925 314.536 225.094 114.832 64.0849 110.262 89.4419 59.9196
internal_count=1879 1752 1440 312 1310 837 470 259 367 473 339
is_linear=0
shrinkage=0.1


Tree=50
num_leaves=15
num_cat=0
split_feature=1 13 2 12 12 12 12 13 1 12 12 13 12 12
split_gain=13.7049 13.2151 14.2919 6.75224 10.7002 5.98295 6.66255 8.4825 1.76378 1.45474 0.738273 0.577872 0.00169707 0.00110472
threshold=554.50000000000011 37631.500000000007 0.06950000000000002 61.500000000000007 469.00000000000006 68.000000000000014 11.500000000000002 5644.5000000000009 3.5000000000000004 22.500000000000004 134.00000000000003 9992.0000000000018 6.5000000000000009 194.00000000000003
decision_type=2 2 2 2 2 2 2 2 2 2 2 2 2 2
left_child=1 2 5 -3 -5 6 8 -8 12 -9 -7 -11 -1 -12
right_child=-2 3 -4 4 -6 10 7 9 -10 11 13 -13 -14 -15
leaf_value=-0.080041190411770949 0.075611042284487909 0.077535082807173403 0.066673293957390467 -0.034625030533656932 0.056678746403484241 -0.051267381564218201 0.040832750801444551 -0.04987280856803529 -0.025603207443539795 -0.0025248443706241373 -0.081688480121771892 -0.025122114591686669 -0.078166394901186917 -0.080122109151347043
leaf_weight=9.6814922504127079 22.844636708498001 21.425462901592255 16.987822711467743 25.854679327458143 25.489937275648117 15.796601247042416 26.784213006496429 18.227819755673409 9.0481889471411687 17.996157772839069 8.3555270247161406 30.490026623010635 9.6317131929099542 9.7643524035811406
leaf_count=135 71 72 74 177 77 185 98 124 34 134 121 215 197 165
internal_value=0.00152648 -0.00536639 -0.0204231 0.0303798 0.0107026 -0.0299212 -0.0195821 -0.00670399 -0.062037 -0.0257889 -0.0670689 -0.0167349 -0.0791062 -0.0808444
internal_weight=268.379 245.534 172.764 72.7701 51.3446 155.776 121.86 93.4982 28.3614 66.714 33.9165 48.4862 19.3132 18.1199
internal_count=1879 1808 1482 326 254 1408 937 571 366 473 471 349 332 286
is_linear=0
shrinkage=0.1


Tree=51
num_leaves=15
num_cat=0
split_feature=13 12 1 12 13 13 13 12 12 1 13 12 12 12
split_gain=13.8301 3.15326 4.59161 5.88119 1.60204 0.871709 0.285181 0.133182 0.4527 0.00207927 0.00113964 9.01529e-05 7.60124e-05 9.3566e-06
threshold=150316.00000000003 15.500000000000002 96.500000000000014 37.500000000000007 19498.500000000004 41173.500000000007 5023.0000000000009 97.500000000000014 144.00000000000003 1.0000000180025095e-35 26690.500000000004 202.00000000000003 11.500000000000002 6.5000000000000009
decision_type=2 2 2 2 2 2 2 2 2 2 2 2 2 2
left_child=1 6 3 4 -3 7 -1 10 -9 12 -5 -10 13 -8
right_child=-2 2 -4 5 -6 -7 9 8 11 -11 -12 -13 -14 -15
leaf_value=-0.041370529199945258 0.094348334891504251 -0.0069251584950009784 0.099000614780037327 -0.076617957616394644 0.073471887428103053 -0.029537315733287047 -0.076028714491498409 -0.011658848424575298 -0.07662777873971606 -0.079047004143516619 -0.079099867054383488 -0.075634185232332174 -0.076568988032361174 -0.075694663858976677
leaf_weight=2.8004925511777392 11.474787309765814 4.2977367900311929 3.3594144508242598 4.5616489788517374 5.8553020991384983 9.6830452661961299 1.563454963266848 1.5521242627874015 1.7997257411479952 4.2985029295086861 3.1124327564612031 1.8538441667333243 2.6020067296922207 1.808241265825927
leaf_count=116 45 174 74 225 131 208 97 109 116 72 64 174 105 169
internal_value=-0.00450153 -0.0275804 -0.0123327 -0.0237649 0.0394402 -0.0522066 -0.0696579 -0.0692494 -0.0569029 -0.0773698 -0.0776246 -0.0761236 -0.0761629 -0.0758496
internal_weight=60.6228 49.148 36.0753 32.7159 10.153 22.5628 13.0727 12.8798 5.20569 10.2722 7.67408 3.65357 5.9737 3.3717
internal_count=1879 1834 1275 1201 305 896 559 688 399 443 289 290 371 266
is_linear=0
shrinkage=0.1


Tree=52
num_leaves=13
num_cat=0
split_feature=13 0 0 14 13 13 13 14 0 14 13 14
split_gain=28.7194 15.1539 14.8432 27.1124 26.3412 11.1392 16.4265 20.2833 2.25812 2.04651 1.26844 0.793997
threshold=39832.000000000007 756.00000000000011 113.00000000000001 5.5000000000000009 6453.0000000000009 29436.500000000004 22993.000000000004 14.500000000000002 1.0000000180025095e-35 42.500000000000007 6156.5000000000009 93.500000000000014
decision_type=2 2 2 2 2 2 2 2 2 2 2 2
left_child=1 2 3 10 -5 6 7 -6 -2 -8 -1 -7
right_child=8 -3 -4 4 5 11 9 -9 -10 -11 -12 -13
leaf_value=0.071728116176612053 -0.089577308459092841 -0.064794867959247632 0.081820728813232213 -0.084846408890771927 0.041244335938789942 -0.023124696795300617 0.069787387919559393 -0.07099909989904947 -0.050163174851193509 0.036690614317877686 0.042946857617162687 -0.047812411878234436
leaf_weight=44.852092668414116 27.333391278982162 27.116467177867889 28.598881959915161 38.975395694375038 31.068118363618851 30.693882897496223 34.481461226940155 33.415946990251541 31.046450406312943 40.776191189885139 23.250351086258888 22.633818723261356
leaf_count=234 178 91 97 182 95 102 125 161 163 187 112 152
internal_value=-0.0036083 0.00705646 0.0129831 0.00642403 -0.00985814 0.00527993 0.0201182 -0.0169207 -0.0686168 0.0518549 0.0619021 -0.0336029
internal_weight=414.242 355.863 328.746 300.147 232.045 193.069 139.742 64.4841 58.3798 75.2577 68.1024 53.3277
internal_count=1879 1538 1447 1350 1004 822 568 256 341 312 346 254
is_linear=0
shrinkage=0.1


Tree=53
num_leaves=12
num_cat=0
split_feature=8 14 14 0 14 13 14 13 13 14 13
split_gain=16.5581 9.59303 10.477 8.0179 18.4426 15.5247 11.1649 4.82883 3.91401 1.86405 1.78802
threshold=1.0000000180025095e-35 104.50000000000001 204.50000000000003 148.00000000000003 5.5000000000000009 22606.000000000004 14.500000000000002 31575.500000000004 6082.5000000000009 49.500000000000007 6156.5000000000009
decision_type=2 2 2 2 2 2 2 2 2 2 2
left_child=1 3 -3 4 10 6 8 9 -6 -7 -1
right_child=-2 2 -4 -5 5 7 -8 -9 -10 -11 -12
leaf_value=-0.070221251847499319 -0.06878274348321764 0.075186763576293864 -0.0056894359230210238 0.05108946975258042 0.032014938894795897 -0.045284928417529235 0.072321633349198264 0.008690363660870953 -0.012983861192754024 -0.014292574014784044 -0.031936780612524605
leaf_weight=34.456563733518124 29.77322768419981 40.33722385764122 26.567204058170319 29.77416729927063 39.742018908262253 44.311337754130363 46.040695980191231 47.349327325820923 37.63343870639801 34.528691612184048 18.885180220007896
leaf_count=233 127 223 89 129 126 196 171 162 124 186 113
internal_value=0.00316026 0.00852021 0.0430715 0.00157256 -0.00329405 0.00811197 0.0333299 -0.0165518 0.0101287 -0.0317116 -0.056667
internal_weight=429.399 399.626 66.9044 332.721 302.947 249.606 123.416 126.189 77.3755 78.84 53.3417
internal_count=1879 1752 312 1440 1311 965 421 544 250 382 346
is_linear=0
shrinkage=0.1


Tree=54
num_leaves=13
num_cat=0
split_feature=0 12 8 12 12 12 12 12 12 12 12 12
split_gain=11.4463 11.7736 9.60503 7.17219 9.76853 3.2121 1.59283 0.897826 0.288388 0.141337 0.391609 0.00116698
threshold=19.500000000000004 469.00000000000006 1.0000000180025095e-35 69.500000000000014 11.500000000000002 15.500000000000002 27.500000000000004 248.00000000000003 42.500000000000007 93.500000000000014 130.00000000000003 6.5000000000000009
decision_type=2 2 2 2 2 2 2 2 2 2 2 2
left_child=1 3 -2 4 11 -6 -7 9 -8 -5 -11 -1
right_child=2 -3 -4 7 5 6 8 -9 -10 10 -12 -13
leaf_value=-0.079448464553989032 0.056730831040664564 0.057635745119791207 -0.011458922429129437 -0.038433344756635707 0.031427853615318545 -0.031607823176842451 0.0097101286511119024 -0.081499515956148572 -0.0062990265326252712 -0.07017100894204388 -0.04266951168750624 -0.077807111340667798
leaf_weight=8.765186972916128 54.328884154558182 20.539060443639755 33.328785791993141 9.0296846330165881 28.032206669449806 21.137193247675896 22.406540542840958 11.688290070742367 22.603389859199524 8.4445438198745268 13.384226206690071 8.5639859139919263
leaf_count=136 191 62 126 93 118 156 133 177 169 106 215 197
internal_value=0.00131959 -0.0134835 0.030804 -0.0229653 -0.00963727 0.00305887 -0.0089635 -0.0578961 0.00167054 -0.0489558 -0.0533086 -0.0786373
internal_weight=262.252 174.594 87.6577 154.055 111.509 94.1793 66.1471 42.5467 45.0099 30.8585 21.8288 17.3292
internal_count=1879 1562 317 1500 909 576 458 591 302 414 321 333
is_linear=0
shrinkage=0.1


Tree=55
num_leaves=13
num_cat=0
split_feature=2 13 2 12 13 12 13 0 12 12 12 12
split_gain=11.8993 5.40709 5.1446 4.98014 0.900803 1.86687 0.702433 0.000381519 0.000183819 0.000561035 1.68857e-05 5.88729e-06
threshold=0.29700000000000004 29629.500000000004 0.037500000000000006 99.500000000000014 5537.5000000000009 8.5000000000000018 41173.500000000007 353.00000000000006 42.500000000000007 31.500000000000004 13.500000000000002 97.500000000000014
decision_type=2 2 2 2 2 2 2 2 2 2 2 2
left_child=1 4 3 -3 5 -1 -5 8 9 10 -6 -10
right_child=-2 2 -4 6 7 -7 -8 -9 11 -11 -12 -13
leaf_value=-0.077288439756173402 0.068173094713313148 0.087018617654831834 -0.087955263089450453 -0.075680144587879083 -0.075740975495856622 0.028282771006945925 -0.006129548495432683 -0.077505791879031422 -0.075865830829221881 -0.077666267285292648 -0.076097534385576635 -0.075641064642653133
leaf_weight=4.03532696515322 16.635094193741679 8.3349765352904814 4.3286071233451358 2.2184314485639325 2.1482557165436464 2.8637494966387749 4.203828907571733 3.0493162218481293 2.9715318642556658 2.9380485638976097 3.4792717164382339 1.9172137537971137
leaf_count=162 123 117 53 209 192 141 154 87 207 67 192 175
internal_value=-0.00352427 -0.0315952 0.0079072 0.0360257 -0.0638109 -0.0334667 -0.0301543 -0.0764958 -0.0762669 -0.0765462 -0.0759614 -0.0757777
internal_weight=59.1237 42.4886 19.0858 14.7572 23.4027 6.89908 6.42226 16.5036 13.4543 8.56558 5.62753 4.88875
internal_count=1879 1756 533 480 1223 303 363 920 833 451 384 382
is_linear=0
shrinkage=0.1


Tree=56
num_leaves=14
num_cat=0
split_feature=13 0 1 12 13 13 13 12 0 12 13 13 12
split_gain=24.301 12.7955 20.7676 18.7221 22.9483 9.42252 13.501 17.5677 2.34083 1.7766 0.903602 3.80893 0.501992
threshold=39832.000000000007 756.00000000000011 8.5000000000000018 11.500000000000002 6453.0000000000009 29436.500000000004 22993.000000000004 27.500000000000004 1.0000000180025095e-35 85.500000000000014 6156.5000000000009 5044.5000000000009 188.00000000000003
decision_type=2 2 2 2 2 2 2 2 2 2 2 2 2
left_child=1 2 3 10 -5 6 7 -6 -2 -8 11 -1 -7
right_child=8 -3 -4 4 5 12 9 -9 -10 -11 -12 -13 -14
leaf_value=0.02911052873105088 -0.088300597216017962 -0.060681513099060114 0.097885237823201271 -0.082280434363997193 0.040724886570172043 -0.023554892855695217 0.064907520635376276 -0.065649808073184782 -0.046735030893749731 0.033429227061906042 0.034825105359315246 0.088696529542820146 -0.043506100677708104
leaf_weight=21.048741608858109 25.087632715702057 26.517726644873619 25.650628387928009 36.53468456864357 29.253816694021225 31.180232286453247 32.957117229700089 33.082458302378654 29.457921631634235 39.321292266249657 22.740580633282661 21.878859832882881 21.176275655627251
leaf_count=95 178 91 87 182 90 104 125 167 163 187 114 144 152
internal_value=-0.00387411 0.00602989 0.011649 0.00399958 -0.00979253 0.00437181 0.018372 -0.0157292 -0.0658527 0.0477825 0.0509419 0.0594797 -0.0316244
internal_weight=395.888 341.342 314.825 289.174 223.506 186.971 134.615 62.3363 54.5456 72.2784 65.6682 42.9276 52.3565
internal_count=1879 1538 1447 1360 1007 825 569 257 341 312 353 239 256
is_linear=0
shrinkage=0.1


Tree=57
num_leaves=13
num_cat=0
split_feature=12 12 12 12 13 1 12 13 12 13 13 12
split_gain=6.58695 8.4834 7.19142 6.41114 6.16503 9.28333 14.145 9.62439 10.998 2.82172 2.81111 0.318628
threshold=210.00000000000003 144.00000000000003 410.00000000000006 99.500000000000014 5023.0000000000009 1.5000000000000002 11.500000000000002 22606.000000000004 30.000000000000004 6156.5000000000009 28571.000000000004 294.00000000000006
decision_type=2 2 2 2 2 2 2 2 2 2 2 2
left_child=1 3 11 4 -1 6 9 8 -8 -6 -9 -2
right_child=2 -3 -4 -5 5 -7 7 10 -10 -11 -12 -13
leaf_value=0.042126337978651382 0.065551113296178548 -0.055049673907745102 -0.0079865909351894276 0.045524486734316111 -0.084067938860718547 -0.046206021044148664 0.0069243029857509082 -0.038908804655609391 0.071809088602311083 -0.027665603254546919 0.0041058654845812894 0.048134690161163528
leaf_weight=27.779061526060104 21.724335998296738 28.381542898714542 28.41944083571434 30.600740231573582 17.622487038373947 49.871274448931217 70.216856390237808 31.782296016812325 41.599859490990639 17.85883254557848 29.10746468603611 20.338401198387146
leaf_count=122 130 142 98 139 159 221 230 156 164 112 97 109
internal_value=0.00301808 -0.00267573 0.0308739 0.00202172 -0.00263553 -0.00745397 0.00182907 0.0136437 0.0310638 -0.0556789 -0.0183463 0.0571298
internal_weight=415.303 344.82 70.4822 316.439 285.838 258.059 208.188 172.706 111.817 35.4813 60.8898 42.0627
internal_count=1879 1542 337 1400 1261 1139 918 647 394 271 253 239
is_linear=0
shrinkage=0.1


Tree=58
num_leaves=15
num_cat=0
split_feature=13 1 12 12 13 13 12 13 12 12 13 13 13 12
split_gain=9.7156 9.32868 6.79989 5.77268 4.55801 2.1246 7.36658 2.69149 2.08977 11.8666 1.06593 0.683634 0.657362 0.201104
threshold=37631.500000000007 107.50000000000001 59.500000000000007 469.00000000000006 5644.5000000000009 29436.500000000004 136.00000000000003 25965.500000000004 13.500000000000002 9.5000000000000018 7259.0000000000009 6328.5000000000009 23226.500000000004 33.500000000000007
decision_type=2 2 2 2 2 2 2 2 2 2 2 2 2 2
left_child=1 4 -2 -4 8 7 -7 10 9 -1 11 -6 13 -12
right_child=2 -3 3 -5 5 6 -8 -9 -10 -11 12 -13 -14 -15
leaf_value=-0.04241136239953508 0.070586969338085503 0.045297565548659498 -0.024247876755060717 0.042704064359333681 -0.029700760798481954 0.040239014014183484 -0.057927493488484638 -0.074511178217499266 -0.018048386179135317 0.10099849172109594 -0.00089208995804104579 -0.061448515119539138 -0.039437477136238741 -0.018537379341605757
leaf_weight=11.775864224880934 27.830591768026352 24.987468585371971 25.746465936303139 25.76581734418869 14.012599203735592 15.382423385977747 15.196020569652317 17.262444894760847 17.383934065699577 11.313010048121214 12.135869827121498 13.145556859672068 11.018735654652117 13.807795800268648
leaf_count=177 90 78 183 78 125 73 210 207 68 66 135 120 132 137
internal_value=0.00167054 -0.0113377 0.0307587 0.00924067 -0.0206215 -0.0310181 -0.00854503 -0.0394621 0.00813916 0.0278561 -0.0300262 -0.0450679 -0.0189744 -0.0102833
internal_weight=256.765 177.422 79.3429 51.5123 152.434 111.961 30.5784 81.383 40.4728 23.0889 64.1206 27.1582 36.9624 25.9437
internal_count=1879 1528 351 261 1450 1139 283 856 311 243 649 245 404 272
is_linear=0
shrinkage=0.1


Tree=59
num_leaves=15
num_cat=0
split_feature=13 2 2 13 12 13 12 12 12 0 12 12 12 12
split_gain=11.2762 2.96989 7.6577 7.83943 1.31913 5.51423 0.930957 1.5687 0.00166256 0.000889994 0.000246675 5.94249e-05 2.38763e-05 3.28223e-06
threshold=150316.00000000003 0.70850000000000013 0.12850000000000003 41173.500000000007 37.500000000000007 29629.500000000004 15.500000000000002 25.500000000000004 44.000000000000007 2553.0000000000005 91.500000000000014 11.500000000000002 4.5000000000000009 158.00000000000003
decision_type=2 2 2 2 2 2 2 2 2 2 2 2 2 2
left_child=1 2 3 4 5 6 9 -8 -6 11 -10 12 -1 -12
right_child=-2 -3 -4 -5 8 -7 7 -9 10 -11 13 -13 -14 -15
leaf_value=-0.076043661757464576 0.085521741928799952 -0.084844346691782424 0.15184935648099118 0.063981646532205158 -0.079314648324823073 0.095604082567545198 0.02617585527678273 -0.076997786264223711 -0.076745780265835367 -0.078075372246677766 -0.075788522689035964 -0.076360929664357147 -0.075522568023029563 -0.07561747743621762
leaf_weight=1.4551282133907135 11.613026559352873 6.9725017100572577 2.599034314043819 7.688162305392324 2.1347506316378704 2.8161451220512381 2.9262911258265367 2.968735096976161 4.3505482887849194 3.0369973406195641 2.0040875962004066 2.4967754622921348 2.2219728757627308 2.5485484199598432
leaf_count=85 45 63 54 201 50 35 147 110 227 61 161 115 257 268
internal_value=-0.00257016 -0.0247039 -0.0140196 -0.0257827 -0.049613 -0.0328638 -0.0568136 -0.0257824 -0.0768083 -0.0766739 -0.0762073 -0.0759844 -0.0757288 -0.0756928
internal_weight=57.8327 46.2197 39.2472 36.6481 28.96 17.922 15.1059 5.89503 11.0379 9.21087 8.90318 6.17388 3.6771 4.55264
internal_count=1879 1834 1771 1717 1516 810 775 257 706 518 656 457 342 429
is_linear=0
shrinkage=0.1


Tree=60
num_leaves=12
num_cat=0
split_feature=8 2 12 12 12 12 12 12 12 12 12
split_gain=23.298 30.7713 20.086 15.0643 17.5387 1.94144 1.40538 0.984154 0.530737 0.0875916 0.0818289
threshold=1.0000000180025095e-35 1.0000000180025095e-35 208.00000000000003 144.00000000000003 11.500000000000002 4.5000000000000009 63.500000000000007 25.500000000000004 368.00000000000006 8.5000000000000018 37.500000000000007
decision_type=2 2 2 2 2 2 2 2 2 2 2
left_child=1 2 3 4 5 -1 7 -6 -4 -7 -9
right_child=-2 -3 8 -5 6 9 -8 10 -10 -11 -12
leaf_value=0.02589706591929454 0.072302544568312518 -0.090664589091836723 -0.082355201861935748 0.081832422355305745 -0.011599616354167168 0.066013278721312588 -0.00085840160911486527 -0.025514927535125305 -0.057015696934794705 0.056291987187111696 -0.03271260070018938
leaf_weight=27.310908585786819 36.899921074509621 42.79169587790966 20.421448066830635 25.784728676080704 62.844594746828079 18.073714829981327 51.485357910394669 30.310164794325829 13.886433377861975 19.025105059146881 32.98313295841217
leaf_count=106 131 208 190 115 253 123 231 130 103 126 161
internal_value=-0.00321992 -0.0112995 -5.8538e-05 0.00916994 0.00142891 0.0461318 -0.0147813 -0.0204641 -0.0720988 0.061028 -0.0292657
internal_weight=381.817 344.917 302.126 267.818 242.033 64.4097 177.623 126.138 34.3079 37.0988 63.2933
internal_count=1877 1746 1538 1245 1130 355 775 544 293 249 291
is_linear=0
shrinkage=0.1


Tree=61
num_leaves=13
num_cat=0
split_feature=8 14 0 13 14 13 14 13 13 0 14 14
split_gain=9.01071 7.1453 15.2241 11.0234 10.8232 9.6377 6.66878 13.6817 4.91674 4.59664 2.20719 4.22343
threshold=1.0000000180025095e-35 6.5000000000000009 6.5000000000000009 6174.5000000000009 12.500000000000002 22214.000000000004 104.50000000000001 42844.500000000007 5923.0000000000009 1.0000000180025095e-35 64.500000000000014 30.500000000000004
decision_type=2 2 2 2 2 2 2 2 2 2 2 2
left_child=1 2 8 -3 -5 -6 9 -8 -1 10 11 -7
right_child=-2 3 -4 4 5 6 7 -9 -10 -11 -12 -13
leaf_value=-0.074689609323555908 -0.053706821258793391 0.063486821037838856 0.052680931660395384 -0.049782313587196224 0.054135236324133751 -0.041194514362460043 0.083795063720040031 -0.012938236328455331 -0.016109787863893662 0.02293025132357189 -0.045844512320461051 0.0090661095065566223
leaf_weight=32.207650862634182 28.92472330480814 35.609708696603775 19.92729140818119 32.541659742593765 43.631247311830521 29.026144206523895 26.062828399240971 33.306650124490261 25.809405364096165 30.147630855441093 27.366249866783619 39.431159898638725
leaf_count=231 131 116 82 127 175 119 176 134 148 120 142 176
internal_value=7.22418e-05 0.00421961 -0.0227287 0.011289 0.0041813 0.0118506 0.00189638 0.0295271 -0.0486299 -0.0111258 -0.0218404 -0.0122446
internal_weight=403.992 375.068 77.9443 297.123 261.514 228.972 185.341 59.3695 58.0171 125.971 95.8236 68.4573
internal_count=1877 1746 461 1285 1169 1042 867 310 379 557 437 295
is_linear=0
shrinkage=0.1


Tree=62
num_leaves=15
num_cat=0
split_feature=13 14 13 2 13 1 14 14 14 13 14 13 14 14
split_gain=8.81271 5.60137 8.61378 6.43525 6.17093 8.11202 4.72634 3.52331 2.99465 1.95187 1.86669 0.864799 0.330135 0.740497
threshold=69068.500000000015 48.500000000000007 29436.500000000004 0.06950000000000002 9992.0000000000018 117.00000000000001 5.5000000000000009 6.5000000000000009 8.5000000000000018 23226.500000000004 206.50000000000003 5023.0000000000009 123.50000000000001 82.500000000000014
decision_type=2 2 2 2 2 2 2 2 2 2 2 2 2 2
left_child=1 2 4 10 5 6 11 -6 -8 -9 12 -1 13 -3
right_child=-2 3 -4 -5 7 -7 8 9 -10 -11 -12 -13 -14 -15
leaf_value=-0.030766223035446613 0.040786735365541497 -0.081518422707436825 0.051745607680868937 0.030208251180682339 -0.082561432229411424 0.071666461301240852 0.030770896809389981 0.00036831835721351839 -0.017458055522227449 -0.049338827104709215 -0.017509717437291267 -0.078363258169821509 -0.085158677055938409 -0.03826442323816124
leaf_weight=7.0512294210493556 48.294061884284019 8.9271513819694572 28.702676959335804 10.733481682837008 12.976994562894104 15.861693829298018 25.740175701677799 18.492921348661184 25.757901035249233 13.79088434204459 8.4987195581197721 8.3231655191630107 10.487711511552332 7.1104507632553569
leaf_count=86 164 147 125 45 106 49 111 169 194 148 29 193 177 134
internal_value=0.00240253 -0.00675372 0.00223469 -0.0375347 -0.00886806 0.00737237 -0.00787775 -0.0385546 0.00664812 -0.0208654 -0.0582952 -0.0565336 -0.0713629 -0.0623413
internal_weight=250.749 202.455 156.698 45.7575 127.995 82.7342 66.8725 45.2608 51.4981 32.2838 35.024 15.3744 26.5253 16.0376
internal_count=1877 1713 1181 532 1056 633 584 423 305 317 487 279 458 281
is_linear=0
shrinkage=0.1


Tree=63
num_leaves=15
num_cat=0
split_feature=13 2 2 13 12 12 13 13 0 13 12 12 12 12
split_gain=6.42906 4.41813 4.28197 7.90039 4.43238 3.7898 3.1926 5.54284 0.000222647 0.000112912 9.67983e-05 0.000257312 4.11703e-06 4.09988e-06
